tree
version=v4
num_class=1
num_tree_per_iteration=1
label_index=0
max_feature_idx=11
objective=regression
feature_names=Column_0 Column_1 Column_2 Column_3 Column_4 Column_5 Column_6 Column_7 Column_8 Column_9 Column_10 Column_11
feature_infos=[-0.34682437352832879:5.383330507994363] [-1.3602099782708119:14.638961204922595] [-13.643778689517607:1.9753715898167106] [-0.11988679559171932:154.33782104197971] [-1.5834977768648728:17.288472693523783] [-0.28484244642571294:112.83294927076579] [-6.7425909732806044:14.090565534342979] [-0.88641050772793428:11.949863092000712] [-1.337717549314583:13.18897195489127] [-11.524113925239568:0.08954171536554098] [-0.36848883407401234:4.4585941459895277] [-0.32130778779666863:18.990871360868681]
tree_sizes=7204 7545 7587 7533 7564 7508 7510 7549 7491 7432 7417 7530 7400 7439 7310 7572 7456 7533 7397 7392 7295 7373 7339 7382 7423 7426 7389 7298 7302 7326 7377 7345 7341 7246 7433 7442 7304 7301 7346 7344 7320 7537 7341 7270 7417 7400 7292 7375 7312 7414 7284 7193 7342 7311 7357 7277 7192 7244 7364 7280 7224 7287

Tree=0
num_leaves=86
num_cat=0
split_feature=0 1 9 11 1 8 5 9 7 6 9 3 6 1 1 3 1 6 5 6 1 3 6 9 9 7 9 6 3 3 7 1 6 3 7 3 7 6 1 7 7 1 3 6 0 3 1 9 5 1 1 6 11 1 9 5 3 6 1 5 9 1 3 9 1 3 3 1 1 11 9 5 10 7 6 3 8 7 6 6 9 5 5 1 0
split_gain=10307 2995.01 1833.25 608.413 422.01 324.831 314.948 283.322 282.917 188.14 149.861 129.656 110.385 103.295 90.2781 81.3927 77.8745 75.7091 72.4433 69.831 68.5308 63.5359 54.4036 50.4225 47.3506 46.056 43.0615 37.6393 25.4298 22.7066 22.0662 21.5722 20.6307 20.5643 19.3047 16.8307 15.8193 15.3709 15.3197 14.9773 14.1946 14.172 14.1038 14.0061 13.2142 11.0348 10.6598 10.4071 9.77801 9.42049 8.95774 8.12067 7.83864 7.62559 7.41295 6.70372 6.56365 6.47603 6.34774 6.30005 5.89949 5.83118 5.76959 5.70066 5.66776 5.26868 6.91945 5.02539 4.97941 4.95103 7.24662 4.74914 4.61943 3.96066 3.27389 3.07908 2.45398 2.34945 2.25649 2.23751 2.16403 2.16209 2.02412 1.90183 1.89224
threshold=-0.19858711643733248 -0.13884080371385227 0.086312746282068017 1.037796760183318 -0.58242389672984696 -0.29446210040170595 -0.040020481720844013 0.084912219043341772 1.3490432229865992 0.027134168132349399 1.0000000180025095e-35 -0.10157540202082972 -0.0470991133904149 0.3381262816101005 -0.80382397193204802 -0.094877555887258921 -0.38822147886433767 -0.20404063624174842 -0.12021554304673872 -0.23399811601158801 1.4982040980738833 -0.096394740544285512 -0.37603298136826341 0.083359202676027241 0.086845265194253674 -0.7507643486672062 0.086451542181619198 1.0000000180025095e-35 -0.098646436447278163 -0.056353249886172005 0.27627028877853771 -0.49010893898945401 -0.24610507761269404 -0.089113346426981349 1.5769264243268837 -0.067822777759278294 2.0810050722209845 1.0000000180025095e-35 1.0158336495943634 -0.018260906325935775 1.4359968982105504 -0.67535229645079575 -0.10271805276192728 -0.2762359863561496 0.084124358772678168 -0.093239353384930015 -0.29364742777210306 0.086967102708788532 -0.16620290245314726 -0.91693659479860579 -0.48201184750762821 -0.15356928702213177 3.6999162005539499 0.011064495239821717 0.086971364882516236 -0.0073417955272904369 -0.10627886696428182 1.0000000180025095e-35 -0.64650029465394188 0.038782437370438058 0.085743498376467414 -0.68124813818000018 -0.067822777759278294 0.086240685407902765 -0.27404539821366408 0.025373586255875571 -0.072320082687709161 -0.30586323272678051 0.13606574946189962 1.7678980822921704 0.086809394789907221 -0.18012628424710761 0.72049203544773488 0.086073488724982897 0.42464954283923045 -0.069036032028086808 -0.7126213884832201 -0.079143044217587125 1.0337977684013815 0.052177338853769975 0.086818443277626181 0.48221877907261163 -0.082933240220898138 0.67238966422621205 -0.30391399524097945
decision_type=2 2 2 2 2 2 2 2 2 2 2 2 2 2 2 2 2 2 2 2 2 2 2 2 2 2 2 2 2 2 2 2 2 2 2 2 2 2 2 2 2 2 2 2 2 2 2 2 2 2 2 2 2 2 2 2 2 2 2 2 2 2 2 2 2 2 2 2 2 2 2 2 2 2 2 2 2 2 2 2 2 2 2 2 2
left_child=1 4 7 6 8 15 13 10 9 14 42 32 16 37 28 58 34 44 20 72 83 -11 68 -21 51 33 -14 38 -1 39 49 -19 -7 57 45 -27 48 53 82 46 59 55 -2 69 67 -6 -17 80 -10 -30 77 60 -22 -3 -45 73 -34 -13 -4 64 -24 -23 78 -53 -18 66 -26 -9 -8 70 -20 -28 -12 -16 -37 -29 -32 84 -49 -31 -35 -68 -15 -5 -47
right_child=2 3 5 18 12 11 22 17 36 21 19 25 26 27 41 29 40 31 43 23 52 61 24 -25 65 35 71 75 30 79 76 -33 56 47 -36 74 -38 -39 -40 -41 -42 -43 -44 54 -46 50 -48 62 -50 -51 -52 63 -54 -55 -56 -57 -58 -59 -60 -61 -62 -63 -64 -65 -66 -67 81 -69 -70 -71 -72 -73 -74 -75 -76 -77 -78 -79 -80 -81 -82 -83 -84 -85 -86
leaf_value=10.546781858472182 10.552774353086404 10.696928629386543 10.520711342645054 10.718118192304583 10.629706001400125 10.65193490649342 10.663396925564026 10.610222690908749 10.684458367682696 10.49392200444254 10.606115567737522 10.658898158073454 10.536110824456792 10.728740534740819 10.633861012342269 10.554198883345325 10.674887542360464 10.492306054812033 10.680186667473849 10.394812954341877 10.772193976191879 10.581015775807481 10.601966490585774 10.453185387513726 10.649659451340824 10.595959428426898 10.65193490649342 10.65193490649342 10.59777795662491 10.649585939273662 10.648619126679652 10.523481986732895 10.568907185538917 10.616274874012918 10.69513778454667 10.655371427405383 10.71012906768795 10.65193490649342 10.751025675684591 10.592165667439597 10.701529705900423 10.646547171650456 10.64556509267242 10.655949390738803 10.55422593595245 10.655191273998829 10.626768983858073 10.668552624868616 10.633652666718749 10.618316302130419 10.665669233625978 10.55107811833242 10.799396406155966 10.709175866943273 10.707838812225015 10.600633534393184 10.596780267554527 10.627500390265737 10.551963931188499 10.65193490649342 10.65193490649342 10.629850437283858 10.688483147146126 10.606640297917453 10.684330003427359 10.626835160472616 10.685417837659228 10.657153141108827 10.703401001648947 10.748418312789587 10.732927415127982 10.621242798284159 10.521109667248245 10.651459089200266 10.626322764518337 10.681085932686091 10.677414827097799 10.663058637668366 10.651322360406215 10.613360602948866 10.650702876384234 10.65193490649342 10.687062036986479 10.747182128798849 10.634055341436751
leaf_weight=40 31 907 306 97 71 24 46 22 87 70 22 40 40 1091 1037 286 1260 580 50 264 924 158 23 440 112 211 50 26 298 29 40 499 293 22 106 41 274 39 373 229 217 1275 23 37 22 1224 24 84 27 550 1341 31 253 1201 62 41 176 259 229 50 36 35 79 76 988 28 67 22 91 136 59 107 23 115 39 42 24 293 73 53 48 23 32 597 23
leaf_count=40 31 907 306 97 71 24 46 22 87 70 22 40 40 1091 1037 286 1260 580 50 264 924 158 23 440 112 211 50 26 298 29 40 499 293 22 106 41 274 39 373 229 217 1275 23 37 22 1224 24 84 27 550 1341 31 253 1201 62 41 176 259 229 50 36 35 79 76 988 28 67 22 91 136 59 107 23 115 39 42 24 293 73 53 48 23 32 597 23
internal_value=10.652 10.682 10.5434 10.7248 10.6538 10.5889 10.7067 10.4842 10.6338 10.6269 10.4462 10.6157 10.6679 10.7151 10.6321 10.5571 10.67 10.5114 10.7594 10.4367 10.7659 10.561 10.6488 10.43 10.6332 10.6344 10.609 10.7312 10.6108 10.5786 10.6142 10.5061 10.5823 10.6476 10.6613 10.608 10.6993 10.7031 10.7339 10.5723 10.6806 10.6404 10.5865 10.7225 10.6031 10.6599 10.5589 10.6619 10.6707 10.6107 10.6608 10.6006 10.7786 10.7041 10.691 10.634 10.5785 10.6323 10.5331 10.6785 10.6312 10.5884 10.6704 10.5864 10.6792 10.6564 10.6617 10.6363 10.6918 10.7339 10.7119 10.6306 10.5531 10.6355 10.643 10.6679 10.6574 10.6564 10.6595 10.6235 10.6363 10.6782 10.7278 10.7437 10.6546
internal_weight=20793 16300 4493 6459 9841 2545 4244 1948 4071 3683 803 1389 5770 3711 3420 1156 5573 1145 2215 749 1871 263 533 704 396 896 197 1564 952 621 912 1079 493 605 3058 291 388 2147 1496 539 2515 2468 54 344 66 2952 310 306 114 848 2881 166 1177 2108 99 1193 469 299 535 2298 59 193 236 107 2248 230 202 44 137 245 109 157 45 1152 80 68 64 1540 157 82 70 90 1123 694 1247
internal_count=20793 16300 4493 6459 9841 2545 4244 1948 4071 3683 803 1389 5770 3711 3420 1156 5573 1145 2215 749 1871 263 533 704 396 896 197 1564 952 621 912 1079 493 605 3058 291 388 2147 1496 539 2515 2468 54 344 66 2952 310 306 114 848 2881 166 1177 2108 99 1193 469 299 535 2298 59 193 236 107 2248 230 202 44 137 245 109 157 45 1152 80 68 64 1540 157 82 70 90 1123 694 1247
is_linear=0
shrinkage=1


Tree=1
num_leaves=86
num_cat=0
split_feature=0 1 2 11 1 1 5 7 2 6 3 1 3 6 1 1 2 6 6 6 5 7 6 2 1 9 9 9 3 6 3 5 7 1 7 5 9 1 7 10 9 7 3 1 2 3 1 6 1 7 6 3 5 3 6 11 5 7 10 1 3 1 1 6 5 5 1 1 9 9 7 1 5 5 5 9 7 7 3 2 6 7 7 11 6
split_gain=8728.28 2535.76 1662.58 517.224 358.091 306.704 275.609 235.045 217.797 171.011 153.582 118.228 92.2689 91.2773 84.8635 57.3775 55.4123 52.7649 51.933 48.5677 46.3312 46.0009 42.2804 39.0456 38.9248 38.0717 27.9068 27.8262 25.5521 23.2162 22.9352 17.3602 16.9402 15.5004 14.375 13.7678 13.174 12.6852 12.5532 12.2864 12.1478 10.3165 9.83708 9.80797 9.72785 9.48418 9.31701 7.62529 7.47379 6.85615 6.65748 6.54539 6.3141 5.95868 5.87205 5.71637 5.64283 5.63369 5.01909 4.98816 4.49949 4.48502 4.09792 4.06172 4.00489 3.87123 3.75988 3.71856 3.52454 3.02936 2.79967 2.5864 2.75345 2.50306 2.41256 2.38378 2.25628 2.13919 2.07244 2.01553 3.12363 2.12613 1.9501 1.85032 1.84947
threshold=-0.19858711643733248 -0.13884080371385227 -0.84554561697635289 1.214257401069468 -0.56583624684649103 -0.39967532922491106 -0.082933240220898138 1.3490432229865992 -2.9835375193736682 0.027134168132349399 -0.096394740544285512 0.48222766362545466 -0.098646436447278163 -0.0470991133904149 -0.75535871646536157 -0.38822147886433767 -0.15171264094925091 -0.23399811601158801 -0.37603298136826341 -0.23399811601158801 0.059695896804348343 -0.76014165402894018 -0.29111060237032277 -0.22744456952123168 1.6799728872930035 0.086869631495353303 0.085358222709608703 0.086627842246136066 -0.098646436447278163 1.0000000180025095e-35 -0.08100776825829907 0.30323359495803764 0.27627028877853771 -0.87508988533680709 1.6856154533548164 -0.057213222425540326 0.086993545867229446 0.081574538239220271 0.71480546602576334 0.066895707812394747 0.086861325030688399 0.38598232913803759 -0.1057055372423748 1.2787656139960299 -0.47279600612779266 -0.067822777759278294 2.649798121754019 0.078134624264290145 -0.67091077052527803 -0.12241242867969325 -0.068880966023183457 0.0088877461109544819 0.029903830778212508 -0.050669425125820129 -0.068880966023183457 1.7678980822921704 -0.14144084254320718 -0.070413072390852219 -0.31398536523732473 -0.48201184750762821 -0.050669425125820129 1.451718949134728 -0.27404539821366408 -0.16588446101743684 -0.0073417955272904369 -0.18012628424710761 -0.67535229645079575 0.13606574946189962 0.086240685407902765 0.08620320363444442 0.95504386312899359 0.31918114974189726 0.3701147031671857 0.22126553887525788 -0.064079054407437677 0.086967102708788532 2.0810050722209845 0.086073488724982897 -0.039763916439279338 0.20424260258703339 -0.21210178864212198 -0.21411534609668956 -0.079143044217587125 4.1052116193987453 -0.088554100083174672
decision_type=2 2 2 2 2 2 2 2 2 2 2 2 2 2 2 2 2 2 2 2 2 2 2 2 2 2 2 2 2 2 2 2 2 2 2 2 2 2 2 2 2 2 2 2 2 2 2 2 2 2 2 2 2 2 2 2 2 2 2 2 2 2 2 2 2 2 2 2 2 2 2 2 2 2 2 2 2 2 2 2 2 2 2 2 2
left_child=1 4 8 6 7 12 11 9 19 14 22 37 -4 15 28 34 -11 39 67 -2 24 36 -7 -15 -5 31 -19 84 -1 43 41 50 33 -30 44 51 61 58 52 -10 -23 -14 -29 -13 -6 71 55 73 64 -44 69 76 62 -42 -39 -22 83 -32 70 82 -59 74 -17 -40 77 -25 -18 -8 -69 -20 -3 -38 -73 -27 -12 -49 -9 -16 -34 80 -50 -81 -46 -26 -24
right_child=2 3 5 20 13 10 18 35 17 16 21 29 30 23 48 38 66 26 25 -21 46 40 27 65 56 47 -28 42 32 -31 57 -33 78 -35 -36 -37 45 54 63 -41 53 -43 49 -45 59 -47 -48 75 79 -51 -52 -53 -54 -55 -56 -57 -58 60 -60 -61 -62 -63 -64 -65 -66 -67 -68 68 -70 -71 -72 72 -74 -75 -76 -77 -78 -79 -80 81 -82 -83 -84 -85 -86
leaf_value=-0.093181333879932576 -0.086491641123517413 0.03902429431477434 -0.12221900913132668 0.089381019342298154 -0.026002406516443199 0.02985383515876066 0.014655272570407329 0.018818491864447714 -0.016265665235057382 -0.14146939339354547 0 0.076074337111696838 -0.09544873384814298 -0.11095447724272531 -0.013703022142388372 0.020050339260953908 -0.063248156213299364 -0.16801869920666604 -0.016011904322514967 -0.22333546882826114 0.030182937035338125 -0.062185266953518045 -0.03487732554660327 0 0.1147161488430208 0.041095936450957139 -0.13359817189215378 -0.069612010267850258 -0.045533135754251053 0.01625500969383557 -0.065026369181016938 -0.061789399319816467 -0.0043556610793994378 -0.025254366860048567 0.041005303075191561 -8.3923218593875493e-05 -0.0088385124189219386 0.05672543199291482 0.039735739126495008 -0.10151668464416373 -0.033413594283445036 -0.059152333465803078 -0.033740147115171086 0.097983528653397309 0.0032050021888552793 0.036028281369951329 0.004610000429790425 -0.018071336576384902 -0.006472487437107018 -0.071487912100441128 -0.035984273142284431 0.063697785491880959 -0.0030208486887855907 0 0.0048810002044727659 0.084428562177641886 0.087051075285287535 -0.041887915510083584 0 0.012429324052325687 0 0.0011601298145215379 0.028929488658919651 0 -0.044294182851748305 -0.027067408212754711 -0.021315501542327638 0.0099698934289047508 0.053339547543470457 0.015544349594407789 0.051095551557621098 0.016000848164694468 -0.0056272108851174981 0.0066874755073649894 -0.028382698206269985 0.0045703551464369397 0.043734060358106515 0 0.020804211279739127 -0.0042980947589552161 -0.039593767780590962 0.0037120294831595778 0.011647072576864311 0.14137993022300491 -0.087992093579682559
leaf_weight=46 28 806 500 737 48 26 57 77 32 80 26 1044 348 37 755 1138 151 502 30 433 43 108 22 51 763 50 541 191 467 46 157 94 61 726 91 35 77 1199 499 24 152 124 249 308 1039 73 32 36 175 53 46 146 46 54 23 48 123 91 26 1350 23 53 810 22 29 105 36 28 113 44 415 107 42 41 114 134 138 97 26 1034 23 249 254 173 343
leaf_count=46 28 806 500 737 48 26 57 77 32 80 26 1044 348 37 755 1138 151 502 30 433 43 108 22 51 763 50 541 191 467 46 157 94 61 726 91 35 77 1199 499 24 152 124 249 308 1039 73 32 36 175 53 46 146 46 54 23 48 123 91 26 1350 23 53 810 22 29 105 36 28 113 44 415 107 42 41 114 134 138 97 26 1034 23 249 254 173 343
internal_value=3.08348e-05 0.0276131 -0.0999422 0.067061 0.00169021 -0.0637689 0.0520031 -0.01565 -0.167567 -0.0216491 -0.0409753 0.0603314 -0.0944291 0.0154673 -0.0170104 0.0174929 -0.0840917 -0.146493 0.0038203 -0.216067 0.102445 -0.0149989 -0.0643148 -0.0385773 0.105877 -0.0104343 -0.1508 -0.0674805 -0.0334376 0.0794468 -0.0750418 -0.0357085 -0.0309225 -0.0334453 0.00935365 0.0435025 0.000148149 0.0493457 0.0264005 -0.0593837 -0.0390728 -0.0867578 -0.0532222 0.0814186 0.00816828 0.011125 0.0494759 0.00977653 -0.00767845 -0.0416399 -0.0127259 0.0481945 0.0231613 -0.0253202 0.0559141 0.0626225 0.116883 -0.0531996 0.0426368 0.00888848 -0.0340286 -0.0158297 0.0238773 0.0382329 -0.0136663 -0.0183886 -0.0566287 0.0385506 0.0464056 0.000248588 0.0433986 0.00189467 0.00871214 0.0282846 -0.0234221 0 0.0360535 -0.0122491 0.00160331 -0.00397157 -0.0117941 -0.00259596 0.00502901 0.120301 -0.0856163
internal_weight=20793 16300 4493 6459 9841 2933 4540 4351 1560 3955 1690 3867 1243 5490 3688 5297 267 1099 673 461 1919 806 884 193 1796 475 1043 858 1326 1398 743 214 1280 1193 2782 396 492 2469 2515 56 314 472 493 1352 2691 299 123 261 2362 302 120 361 1994 206 1222 91 1059 271 1247 2643 114 193 1948 521 881 156 187 198 141 74 1221 226 149 91 140 170 215 852 87 1481 198 1283 1293 936 365
internal_count=20793 16300 4493 6459 9841 2933 4540 4351 1560 3955 1690 3867 1243 5490 3688 5297 267 1099 673 461 1919 806 884 193 1796 475 1043 858 1326 1398 743 214 1280 1193 2782 396 492 2469 2515 56 314 472 493 1352 2691 299 123 261 2362 302 120 361 1994 206 1222 91 1059 271 1247 2643 114 193 1948 521 881 156 187 198 141 74 1221 226 149 91 140 170 215 852 87 1481 198 1283 1293 936 365
is_linear=0
shrinkage=0.0810527


Tree=2
num_leaves=86
num_cat=0
split_feature=6 1 2 2 1 1 4 7 9 1 5 5 3 5 2 3 1 11 4 8 9 1 3 3 1 5 3 6 6 1 7 9 5 7 7 3 2 6 7 8 3 1 7 2 5 2 3 9 11 6 5 1 2 4 5 5 3 9 3 1 3 6 1 1 1 7 4 8 3 5 5 4 7 1 2 1 2 1 7 6 3 3 8 5 1
split_gain=7156.7 2154.36 1893.12 358.587 326.476 303.859 303.09 163.533 133.374 127.279 115.112 86.0882 78.7391 70.6661 64.2766 63.1641 59.775 46.0142 40.2171 37.0479 36.9534 31.3869 28.2999 24.685 23.6575 21.2743 20.8159 18.1679 18.0619 16.4139 14.4226 14.0937 13.5515 12.9724 12.7204 12.4133 12.129 11.7188 11.6457 9.39458 8.41284 8.03133 7.47693 7.14343 7.14307 7.09415 5.69252 5.68069 5.2519 5.02534 4.76216 4.50722 4.48063 4.41249 4.37628 4.27039 4.22609 4.12382 3.88625 3.83225 3.82646 3.8251 8.13369 3.56656 3.53934 3.44772 3.27008 3.26714 3.18019 3.05797 2.85973 2.79913 2.79121 2.64044 2.56554 2.56068 2.51669 2.33123 2.27984 2.2529 2.2346 2.0289 1.90797 1.74462 1.62272
threshold=-0.088554100083174672 -0.031795995821841193 -0.35070563487192735 -1.8160338099836946 -0.52317766323878734 0.88948640733233508 -0.57797425410023184 1.3490432229865992 0.086967102708788532 -0.80382397193204802 0.32701470377125574 0.0089524348182056183 -0.098646436447278163 0.0711113469753369 -3.7446098994976555 -0.082092866136608794 -0.32796700281884555 1.750142905100492 -0.012015505197231319 -0.25846578332374226 0.086809394789907221 -0.44423190714886635 -0.079044802908395898 -0.069036032028086808 0.46425281870862789 0.093738070833010875 -0.1057055372423748 -0.34571217854496666 -0.29488128001633745 -0.65161173356625512 0.11538259199327945 0.085448106334437599 0.8801629385815134 1.4359968982105504 0.51973543365575436 -0.093239353384930015 -1.0591190112061322 -0.3343449264007457 0.086073488724982897 1.1375994874971289 -0.098646436447278163 -0.93809094914035951 0.028544143577142356 -0.069810897103177186 -0.22482275891577508 -0.32005539225966534 -0.080078161937408562 0.086645082166727672 1.1103480203424729 -0.36179940536434674 -0.13336368546575791 1.7319870549210037 0.12691360276280586 0.13530276623015206 0.048624259026418169 0.56790876591419315 -0.097855599349120775 0.086608150016730237 -0.049662693260474788 -0.21141970451881811 -0.08578755673260359 -0.22714119542451891 2.2519274175638673 0.13606574946189962 -0.43386676638936883 -0.052054642825349572 -0.34150777343258282 -0.16029108050409793 0.010142183544195743 0.77158109640993766 0.038782437370438058 -0.72931223886630037 -0.2059412879295934 -0.63172611266946477 0.34285443510540331 -0.73050905951377954 0.092504899524575676 -0.19591294727084055 -0.04368764494041856 -0.34178715104811896 -0.07346582894385624 -0.024748651712433904 -0.05751902540760178 -0.18012628424710761 -0.58643400013260438
decision_type=2 2 2 2 2 2 2 2 2 2 2 2 2 2 2 2 2 2 2 2 2 2 2 2 2 2 2 2 2 2 2 2 2 2 2 2 2 2 2 2 2 2 2 2 2 2 2 2 2 2 2 2 2 2 2 2 2 2 2 2 2 2 2 2 2 2 2 2 2 2 2 2 2 2 2 2 2 2 2 2 2 2 2 2 2
left_child=1 4 3 14 7 11 15 9 26 12 17 24 -1 16 -2 19 34 20 35 40 37 56 69 54 46 29 -8 -15 51 65 41 -29 49 43 45 74 -23 -7 71 47 -4 -14 -42 77 -40 -6 -3 70 -30 -13 67 -12 79 -22 -9 -24 78 -46 -32 -45 -41 62 -19 -48 -47 75 -37 -36 -25 -20 -28 -17 84 -27 -10 -11 -26 -18 -5 -31 -51 -73 -59 -49 -54
right_child=2 5 6 21 13 10 8 23 18 25 28 32 30 27 -16 38 33 61 22 -21 53 36 55 68 76 73 39 31 48 52 58 -33 -34 -35 50 66 -38 -39 44 60 42 -43 -44 59 57 64 63 83 -50 80 -52 -53 72 -55 -56 -57 -58 82 -60 -61 -62 -63 -64 -65 -66 -67 -68 -69 -70 -71 -72 81 -74 -75 -76 -77 -78 -79 -80 -81 -82 -83 -84 -85 -86
leaf_value=-0.11740127936011632 -0.21912108773553063 0.022593717107698755 -0.10720463377272786 -0.14101158719242604 -0.020748431807735581 0.048157129652191405 -0.067576639089662813 0.0062585422882526671 -0.020293711014817074 -0.019106413886386984 0.061730689126799521 0.024668216519803381 -0.051130861668504141 -0.0017987496466862652 -0.16349002038268784 -0.063272349654218518 -0.0049503405173018915 0.096186395579268252 0.00026299125201132518 -0.050521997195959303 0.031319330669162614 -0.11781095257085823 0.043553840573138568 0.035869124867061571 0.028462513784555672 -0.069264312323627147 -0.030306791282549768 -0.11815691166714891 -0.054929155486714981 -0.0046185554606606319 -0.017050907809916329 -0.032378358851056332 -0.041775216016749106 0.047141233686519596 0.021814921954128961 -0.0099892692647587898 -0.084622270530865532 -0.0053230773281627971 0.00057637024630104649 -0.023890390975033579 -0.092696349992208313 -0.030486377300274495 -0.061938198427010503 0.023998203757633257 -0.071116722910517502 0.0075024327647333208 0.043380400825996486 -0.005463689232362158 0 -0.011103631645711985 0 0.0069184575837765655 -0.004330227132787255 0.086341686907527346 -0.034314805286010497 0 -0.081038758079660725 -0.031276414273027256 0.013240891394838979 0.032707250762719915 0 0.06006530345229031 0.11766053255000296 0.054091649585636677 0.014209870790270052 -0.0014832891933368058 0.0047461985836612054 0.043043092201899627 0.05827383803836772 -0.0271430040927562 -0.075069528005379402 -0.044522000829383492 0.0067621551315291796 -0.022027824343017116 -0.055749592373688421 -0.010508905893167995 0.066948772364139486 0.017767999111884109 -0.11308280298975357 -0.028378518213163721 0.015001017407326163 -0.006059632932642561 0 -0.035158733440741052 0.0011378916292314465
leaf_weight=79 285 88 264 354 41 89 184 40 74 508 24 79 226 62 574 225 54 589 108 230 25 194 224 204 35 36 40 22 23 103 58 52 38 288 249 219 387 29 34 94 244 586 178 991 23 1276 781 31 26 64 30 31 658 1126 22 22 53 137 44 1016 55 44 523 944 1172 197 157 107 151 28 59 94 341 34 36 757 866 46 252 51 26 24 26 241 692
leaf_count=79 285 88 264 354 41 89 184 40 74 508 24 79 226 62 574 225 54 589 108 230 25 194 224 204 35 36 40 22 23 103 58 52 38 288 249 219 387 29 34 94 244 586 178 991 23 1276 781 31 26 64 30 31 658 1126 22 22 53 137 44 1016 55 44 523 944 1172 197 157 107 151 28 59 94 341 34 36 757 866 46 252 51 26 24 26 241 692
internal_value=1.26386e-05 0.0273069 -0.0828234 -0.142057 0.00528713 0.0684294 -0.0419068 -0.0100997 -0.0169187 -0.0147644 0.0891149 0.05038 -0.0402662 0.0189439 -0.182899 -0.0682494 0.0204618 0.0926955 0.00416336 -0.0817107 0.0808286 -0.113222 0.0238915 0.0380911 0.0542185 -0.00718075 -0.0430725 -0.0376838 0.00364531 -0.00615486 -0.0330159 -0.0640669 0 0.0299712 0.0124521 -0.0110237 -0.0965982 0.0337093 -0.0456888 -0.0336943 -0.0916209 -0.0366337 -0.0807129 0.0274701 -0.0286342 0.0101836 0.0482763 -0.0408813 -0.0291986 0.00998378 0.0264072 0.0360469 -0.000959076 0.0853946 -0.00630353 0.0402103 -0.127067 -0.0348607 -0.00223946 0.0285427 -0.0141168 0.105307 0.106757 0.0494367 0.0108026 -0.0125706 -0.00336581 0.0290291 0.0463424 -0.00455626 -0.0602795 -0.0557358 0.000150737 -0.0507743 -0.0347537 -0.014145 0.0657614 0.00395271 -0.130349 -0.0140657 -0.00134465 -0.0385729 -0.0273813 -0.0325413 -0.00139604
internal_weight=20793 15643 5150 2099 10193 5450 3051 4787 1572 4370 2529 2921 993 5406 859 1479 5270 2425 868 916 1269 1240 382 417 2714 3377 704 136 104 3307 914 74 207 2395 2875 486 581 118 563 520 686 812 422 2107 220 2489 1813 371 49 169 386 55 1845 1151 62 246 659 186 102 2007 149 1156 1112 1725 2448 1462 376 356 355 136 99 343 1691 70 110 1265 901 100 606 154 90 118 163 272 1350
internal_count=20793 15643 5150 2099 10193 5450 3051 4787 1572 4370 2529 2921 993 5406 859 1479 5270 2425 868 916 1269 1240 382 417 2714 3377 704 136 104 3307 914 74 207 2395 2875 486 581 118 563 520 686 812 422 2107 220 2489 1813 371 49 169 386 55 1845 1151 62 246 659 186 102 2007 149 1156 1112 1725 2448 1462 376 356 355 136 99 343 1691 70 110 1265 901 100 606 154 90 118 163 272 1350
is_linear=0
shrinkage=0.0810527


Tree=3
num_leaves=86
num_cat=0
split_feature=0 4 2 8 8 6 11 2 7 7 3 4 3 5 8 5 4 2 6 2 6 6 3 4 3 6 5 8 9 4 3 5 8 3 3 7 11 7 3 5 9 7 8 4 7 4 0 6 0 9 7 7 4 7 4 8 6 7 5 3 9 6 5 5 9 4 8 6 5 6 8 8 4 5 3 3 7 7 3 3 6 9 6 6 9
split_gain=6304.53 1697.98 1191.7 397.224 238.14 208.124 188.584 158.25 143.987 104.332 99.6801 98.8304 69.5039 68.9796 59.2485 59.9689 56.2078 53.2279 45.592 36.3746 33.1987 29.7746 29.3437 29.052 26.1904 25.6714 25.4969 23.5231 22.4845 19.7775 18.6809 17.7372 18.2238 16.9721 16.6938 13.2304 12.1694 11.6371 10.9099 10.6176 9.51159 9.21517 9.19619 9.0255 8.61512 8.45683 8.08439 7.4947 7.32683 7.12051 6.85818 6.71251 6.59811 6.57953 6.77424 6.41664 6.16119 6.117 5.99714 5.95709 5.60164 5.16439 4.77961 4.77676 4.60754 4.45953 4.4346 4.13836 3.9582 3.93365 3.71737 3.40183 3.19164 3.15555 3.14115 2.83025 2.73409 2.36668 2.25782 2.16781 2.13471 2.08584 2.06239 1.90633 4.17346
threshold=-0.19858711643733248 0.31057727817332997 -0.84554561697635289 -0.402527937115228 -0.16807991242830453 0.052177338853769975 1.4422152432785376 -2.1327867830433251 0.36780748887579889 -0.21411534609668956 -0.09718687993933571 -0.50560926688227503 -0.094877555887258921 -0.057213222425540326 0.15590947437713884 0.20773619547545988 -0.19438017194316826 -0.15171264094925091 -0.3291684498385154 -5.2326971569381682 -0.10625419868353637 -0.2201473293209418 -0.099421455426474334 -0.050023253449374701 -0.023744679694480103 -0.29111060237032277 0.059695896804348343 0.18350576989346479 0.086588864513102187 -0.74814603016400161 -0.1057055372423748 1.0000000180025095e-35 0.12489992953779518 0.026115950096599966 -0.030365980729238285 -0.74346035745452765 2.990589591888106 1.5298409569585731 -0.092367027647890329 -0.082933240220898138 0.086818443277626181 -0.7507643486672062 0.96114831025643277 -0.48739889320460511 -0.14505387478096801 -0.38075702396806849 -0.27939200829520267 -0.23399811601158801 -0.061101167877643005 0.086993545867229446 -0.76014165402894018 -0.11461026317854846 -0.32699752896804885 0.66831016263528398 -0.56395326378752808 -0.54157386254278039 -0.31362642136628999 1.5769264243268837 0.093738070833010875 -0.10852846772376352 0.086827271528918365 -0.19694093024045725 -0.23880636090481513 -0.12891470865849788 0.086312746282068017 -0.57797425410023184 -0.64856639793090642 -0.20404063624174842 0.0711113469753369 1.0000000180025095e-35 -0.13604156664723008 -0.74462072570060267 -0.34150777343258282 0.48221877907261163 -0.060897784287808586 0.003727088944506783 -0.136821598843372 2.2761159338712389 -0.057439986119116992 -0.0053906062051731537 -0.12305808347444532 0.086971364882516236 0.10940473421595825 -0.16588446101743684 0.086809394789907221
decision_type=2 2 2 2 2 2 2 2 2 2 2 2 2 2 2 2 2 2 2 2 2 2 2 2 2 2 2 2 2 2 2 2 2 2 2 2 2 2 2 2 2 2 2 2 2 2 2 2 2 2 2 2 2 2 2 2 2 2 2 2 2 2 2 2 2 2 2 2 2 2 2 2 2 2 2 2 2 2 2 2 2 2 2 2 2
left_child=1 3 7 5 12 9 14 18 16 11 25 22 35 27 55 39 20 -7 -2 -20 43 48 -1 40 46 -6 36 57 -22 51 -27 32 76 52 71 -4 -8 45 -17 42 -12 -32 -16 -5 -37 63 53 -15 -9 -25 -21 -14 79 54 -11 78 -31 67 -57 -46 -58 -28 -19 -26 -33 -42 -23 -10 -49 -34 -45 -24 -30 -40 -51 -36 -18 -55 -3 -13 -66 -82 -64 84 -41
right_child=2 6 4 8 10 17 26 21 13 24 23 33 29 47 15 38 31 62 19 50 28 66 34 49 37 30 61 -29 72 56 41 64 69 -35 75 44 -38 -39 73 83 65 -43 -44 70 59 -47 -48 68 -50 74 -52 -53 -54 77 -56 58 60 -59 -60 -61 -62 -63 82 -65 80 -67 -68 -69 -70 -71 -72 -73 -74 -75 -76 -77 -78 -79 -80 -81 81 -83 -84 -85 -86
leaf_value=-0.092417478514738735 -0.053013315655454127 0 -0.064463917694433021 -0.00025272482985352445 0.024541983707748655 -0.1176698341622803 0.086717368421820942 0 0.032849224899014186 -0.011449798928683457 -0.046693413893120164 -0.016349809293721759 -0.081803017337586978 0.0039854041061411164 0.059671657621622673 -0.029129805912678199 0.017362266968501672 -0.0083985240073815443 -0.2173013849888123 -0.1190731422869567 -0.086863622570278798 -0.13176503862835609 -0.039732044362244562 -0.0037961918948632048 0.009385624893048939 -0.067454131626582786 0.055463268604803322 0.054766233277030417 -0.020289687501802715 0 -0.027499804781202911 -0.029317386135208807 0.046843568130911152 0.0070621710950821755 -0.018798942298777491 -0.11627960185242127 0.10765554744063761 0.041516206475031438 0.044601292681825694 0.021517089389573418 -0.028791951472321668 -0.065017271352539902 0.076590386959689019 0.0079462137762592207 -0.11735800972416775 0.022294260022296321 -0.032877055687307977 0 -0.070315348109834336 0.012204536262231837 -0.16761384781366498 -0.053224839043320649 -0.00049149411696537291 0.0080579924689161853 0.0075101413102043905 0.043336166878998252 -0.061016242088097486 0.044520765142569113 0 -0.079251123559213224 -0.031612759951357955 0.0032928503266715439 -0.012865766297816661 -0.024438005191870397 0.020382521972521682 -0.0071445600754661519 -0.10702645570421654 0.0035073037699890753 -0.040216699875294318 0.0015011899957144928 0.018962984140549765 -0.02425591745913127 0.00042999892376922112 0 0.040794539025325711 -0.0064331667673915667 0.030377140368256412 0.028804976410581197 0.026057909163697976 -0.0061638462149492344 -0.019808857683876531 0.0069244596546006506 -0.052480842856659701 0.01953265051219228 0.065246138087952529
leaf_weight=42 29 32 145 604 23 97 980 22 982 252 85 351 225 93 609 42 555 35 157 91 32 367 382 108 374 378 69 755 125 23 230 27 337 1203 511 248 481 158 24 44 107 70 835 714 79 719 39 25 22 132 473 187 798 225 229 545 100 523 28 325 189 25 25 24 41 233 399 48 53 22 358 269 52 27 46 234 222 58 222 367 25 52 188 49 63
leaf_count=42 29 32 145 604 23 97 980 22 982 252 85 351 225 93 609 42 555 35 157 91 32 367 382 108 374 378 69 755 125 23 230 27 337 1203 511 248 481 158 24 44 107 70 835 714 79 719 39 25 22 132 473 187 798 225 229 545 100 523 28 325 189 25 25 24 41 233 399 48 53 22 358 269 52 27 46 234 222 58 222 367 25 52 188 49 63
internal_value=0 0.0234262 -0.0849817 0.00829889 -0.0543401 -0.00521056 0.0687215 -0.142247 0.0240724 -0.0017739 -0.030054 -0.00921082 -0.0766561 0.0387272 0.0547117 0.063577 0.0125126 -0.066211 -0.170066 -0.174268 0.00348417 -0.115699 -0.0263706 -0.00829763 0.013007 -0.0517238 0.0911501 0.0424195 -0.0265473 -0.0573362 -0.054682 0.025614 0.029015 -4.81023e-05 -0.0240473 -0.0936802 0.0939545 0.0202247 0 0.0672478 -0.0218201 -0.0374472 0.0697282 0.00738125 -0.0995542 0.0169404 0.00128526 -0.00992301 -0.0402303 0.0111833 -0.160816 -0.0697793 -0.00581374 0.0033966 -0.00205529 0.0361685 -0.0397864 0.0362 0.0414533 -0.0880101 -0.0429662 0.0440321 -0.044121 0.00671255 0 -0.0146938 -0.119612 0.0316739 -0.0282661 0.0446076 0.0118406 -0.0337657 -0.0132871 0.0248052 0.0211888 -0.0152033 0.0214239 0.013222 0.0231701 -0.0114471 0.00597769 0 -0.0489349 0.0422049 0.0500641
internal_weight=20793 16300 4493 12225 2933 6580 4075 1560 5645 6235 1412 4157 1521 2479 2520 1693 3166 345 750 721 1885 810 1438 711 2078 701 1555 2308 209 724 678 1281 1136 2719 1396 797 1461 1275 93 1600 425 300 1444 1676 652 1117 803 171 44 286 564 412 1516 764 481 827 312 1553 573 404 289 94 248 398 145 340 766 1030 78 359 1072 651 177 51 178 745 777 283 254 718 118 77 213 156 107
internal_count=20793 16300 4493 12225 2933 6580 4075 1560 5645 6235 1412 4157 1521 2479 2520 1693 3166 345 750 721 1885 810 1438 711 2078 701 1555 2308 209 724 678 1281 1136 2719 1396 797 1461 1275 93 1600 425 300 1444 1676 652 1117 803 171 44 286 564 412 1516 764 481 827 312 1553 573 404 289 94 248 398 145 340 766 1030 78 359 1072 651 177 51 178 745 777 283 254 718 118 77 213 156 107
is_linear=0
shrinkage=0.0810527


Tree=4
num_leaves=86
num_cat=0
split_feature=0 1 2 4 1 2 4 5 7 3 9 1 1 5 3 1 1 1 3 3 4 9 0 4 7 1 5 4 7 5 0 10 4 7 5 3 2 10 7 1 7 1 5 1 5 1 10 1 3 10 2 7 7 1 9 7 5 2 7 9 2 9 10 1 5 2 2 1 10 8 2 7 1 8 9 8 9 9 5 5 3 9 3 7 8
split_gain=5342.28 1552.9 1009.52 326.467 221.864 191.638 184.602 157.997 149.137 96.8294 70.3256 57.2726 54.5863 52.1336 45.6764 33.221 33.016 32.3192 29.6982 25.3813 24.7884 23.004 16.472 15.3992 14.7034 13.55 12.7927 12.2238 11.6137 11.5309 11.4207 10.6634 10.6024 10.5942 9.56694 9.00185 8.6155 8.4333 8.4687 7.1204 7.0494 6.78382 6.57047 6.30127 6.28035 5.91763 5.599 5.57368 5.22287 5.15509 5.10609 5.02703 4.78021 4.39679 4.37889 4.07443 3.80753 3.76196 3.65446 3.49747 3.40742 3.14644 3.04348 2.99016 2.91677 2.73665 2.69969 2.68668 2.67581 2.66302 2.66295 2.58538 2.55795 2.51004 2.46963 2.44824 2.23021 2.21993 2.21133 2.20976 2.17801 2.11255 2.05433 2.05157 2.04471
threshold=-0.19858711643733248 -0.13884080371385227 -0.56408519294767989 0.7764342259666287 -0.56583624684649103 -2.1327867830433251 -0.59465654880092889 -0.040020481720844013 1.1489541073736855 -0.09718687993933571 0.086837108659123405 -0.78247698730733062 1.4001096477624617 -0.12891470865849788 -0.086738444109952809 -0.38366861715216866 -0.35520333612654048 0.30126217227978708 -0.098646436447278163 -0.096394740544285512 -0.62508913605511773 0.086312746282068017 -0.037594960903589915 -0.5009281190825039 -0.76014165402894018 -0.67091077052527803 0.42054288595681505 -0.25570047191172873 2.2761159338712389 0.13245447484275505 -0.28915596529918403 -0.12603451291111695 -0.17694123611575269 0.81437287640723499 -0.094186232976018636 -0.044022831016169044 -6.6435559762747953 -0.31398536523732473 1.4359968982105504 2.4240776397884507 -0.04368764494041856 -0.66119003783336405 -0.13336368546575791 0.10826300251895922 -0.11656829098597389 0.828729309153733 -0.27459861874744568 0.056640072563907656 -0.074870156322001877 -0.31665417041765936 -1.0591190112061322 0.13087075510263182 -0.11461026317854846 0.48222766362545466 0.086827271528918365 1.3490432229865992 0.22126553887525788 -0.47279600612779266 -0.04368764494041856 0.086837108659123405 -0.089266130654765422 0.086788005670127746 -0.3327632861171001 -0.48201184750762821 0.059695896804348343 0.43019415499435554 0.38287896954925577 0.64720972830553825 0.066895707812394747 -0.05751902540760178 0.20424260258703339 -0.04368764494041856 -0.30586323272678051 -0.60026960232723081 0.086608150016730237 -0.14459832142254012 0.086993545867229446 0.087023471221780252 -0.14546363439655138 -0.0073417955272904369 -0.026513844252795068 0.086967102708788532 -0.086738444109952809 -0.052054642825349572 0.21838957737979622
decision_type=2 2 2 2 2 2 2 2 2 2 2 2 2 2 2 2 2 2 2 2 2 2 2 2 2 2 2 2 2 2 2 2 2 2 2 2 2 2 2 2 2 2 2 2 2 2 2 2 2 2 2 2 2 2 2 2 2 2 2 2 2 2 2 2 2 2 2 2 2 2 2 2 2 2 2 2 2 2 2 2 2 2 2 2 2
left_child=1 4 5 7 8 16 18 17 9 23 31 35 53 39 29 33 36 46 24 66 71 43 -22 44 -4 52 49 -21 42 57 41 45 64 63 62 40 -2 38 72 -14 -11 79 80 -9 -1 -8 55 -33 68 -15 -24 -37 -20 -5 -28 -3 61 58 -6 74 -49 -55 67 -16 -23 70 84 -19 -29 -27 -61 -7 -17 -35 -34 -31 -32 -50 -39 83 -10 -66 -36 -13 -12
right_child=2 3 6 12 14 20 10 21 28 11 19 30 13 26 15 37 -18 34 25 27 22 32 50 -25 -26 69 54 48 -30 75 76 47 59 73 82 51 -38 78 -40 -41 -42 -43 -44 -45 -46 -47 -48 60 77 -51 -52 -53 -54 56 -56 -57 -58 -59 -60 65 -62 -63 -64 -65 81 -67 -68 -69 -70 -71 -72 -73 -74 -75 -76 -77 -78 -79 -80 -81 -82 -83 -84 -85 -86
leaf_value=-0.037561655437990671 -0.21381168870860837 0.033753076444670252 -0.052564756947913585 0.042490873206802525 -0.031017965267151618 -0.12494063628847937 -0.031515125427027661 -0.0085933715236089329 0.0067757125866312277 -0.042262317459499744 -0.039269201944121916 -0.011388659158963184 0.083993403467075622 0.063397302512426451 0.0029543404139612613 0.015708310077662952 -0.11680133601348643 0.050604878870398141 -0.075462866268746376 -0.013045465025854439 -0.03398147532736339 0.0015847428398284831 -0.10327027171252151 -0.025728613801708943 -0.093195341707081117 -0.04800668728605488 -0.01319496817770153 0.01083196642482883 0.044422264541701437 -0.056489342648726446 -0.051887669917634008 -0.066726728365420485 0.014576704720623088 0 0 -0.023658730059813646 -0.1588862981073044 0.0045188548282756877 0.038570931748620869 0.10289526389775765 -0.014965221698005626 -0.0021914016634547169 -0.016682585804338939 -0.058536177648140966 -0.10157680513008989 0.013357020115651097 0 -0.049265176724960107 0 0.020569484370870909 -0.074362968478142402 0.0028871074101786626 -0.050633168218103194 0.038145971275619826 0.031245317241867614 0.044782928169818416 0.019973764442162895 0.0036168196546357122 0 0.0013511490962171855 -0.023828020774375028 0.065305991116895931 0.03310821524453763 0.0087682252564060727 -0.031278571298128797 -0.00018980422422535013 -0.0566297985756938 0.063873388166613143 -0.0077812705970145037 -0.024806072573900322 0.030429641971506091 -0.099479182634807373 0.022629417773610699 0.028260159190645728 -0.014744256702181413 -0.011199592234846595 -0.017198909315850233 0.028721588832291724 -0.021820869069684789 -0.034205199220358154 0.032819822783682409 -0.0039571412509357539 0.02797829419566952 -6.0931755553422429e-05 -0.015623255517645379
leaf_weight=28 76 1461 116 190 56 330 41 38 63 441 63 997 905 186 1248 909 175 605 292 250 54 37 228 44 376 252 24 99 256 58 41 161 29 37 22 597 499 32 199 436 104 1302 28 57 103 25 24 211 33 40 208 37 180 81 23 483 30 77 30 43 94 820 92 1348 60 22 36 504 92 96 105 282 1249 192 40 24 56 101 31 30 70 53 49 154 123
leaf_count=28 76 1461 116 190 56 330 41 38 63 441 63 997 905 186 1248 909 175 605 292 250 54 37 228 44 376 252 24 99 256 58 41 161 29 37 22 597 499 32 199 436 104 1302 28 57 103 25 24 211 33 40 208 37 180 81 23 483 30 77 30 43 94 820 92 1348 60 22 36 504 92 96 105 282 1249 192 40 24 56 101 31 30 70 53 49 154 123
internal_value=-1.98607e-05 0.0215434 -0.0782491 0.0524138 0.00125306 -0.124154 -0.0458782 0.0366476 -0.0123916 -0.017313 -0.0242833 -0.0144718 0.0737471 0.0837015 0.0121011 0.0137235 -0.156531 0.0431019 -0.0675022 -0.00870138 -0.101567 -0.00618325 -0.0849321 -0.0759695 -0.0843842 -0.0568641 0.0489678 1.57489e-05 0.0333816 -0.0216253 -0.00759534 -0.0470946 0.00220353 0.0076369 0.0535583 -0.0293038 -0.167598 0.020734 0.0215361 0.0905039 -0.037504 -0.0064131 0.0141917 -0.0413474 -0.0904716 -0.0120412 0.0361753 -0.0515542 0.0106493 0.0570058 -0.0905343 -0.0218158 -0.066781 0.0590559 0.0055088 0.0366561 0.0620847 -0.00746623 -0.0192158 0.0131386 -0.0423458 0.0632093 0.0553814 0.00605067 -0.0139366 0.0193411 -0.0317733 0.0569648 0.000943791 -0.0424099 0.0233972 -0.11408 0.0198261 0.0245019 0 -0.0462941 -0.0348685 0.0228073 -0.00610355 -0.0108945 0.0222726 -0.0204975 0.0192013 -0.0100359 -0.0251246
internal_weight=20793 16300 4493 6459 9841 1852 2641 3724 4351 3934 1329 3759 2735 1614 5490 5245 750 3240 1312 797 1102 484 490 175 492 820 273 575 417 245 2580 532 389 2825 1272 1179 575 2420 2357 1341 545 2483 161 95 131 66 1968 466 325 226 436 634 472 1121 47 1944 931 163 86 239 305 901 1201 2596 150 170 222 1109 191 348 148 612 2158 229 69 82 97 134 63 1181 133 113 71 1151 186
internal_count=20793 16300 4493 6459 9841 1852 2641 3724 4351 3934 1329 3759 2735 1614 5490 5245 750 3240 1312 797 1102 484 490 175 492 820 273 575 417 245 2580 532 389 2825 1272 1179 575 2420 2357 1341 545 2483 161 95 131 66 1968 466 325 226 436 634 472 1121 47 1944 931 163 86 239 305 901 1201 2596 150 170 222 1109 191 348 148 612 2158 229 69 82 97 134 63 1181 133 113 71 1151 186
is_linear=0
shrinkage=0.0810527


Tree=5
num_leaves=86
num_cat=0
split_feature=0 4 2 8 6 8 7 2 11 3 3 2 5 4 7 3 5 8 3 8 7 5 8 7 6 6 4 8 2 6 6 6 5 6 3 2 3 4 3 7 3 11 2 0 7 0 4 6 6 4 4 2 5 5 4 4 7 4 0 7 7 5 8 6 3 8 3 3 5 5 8 7 6 5 7 5 3 3 5 6 8 3 7 8 8
split_gain=4415.41 1236.19 796.097 326.774 187.418 160.949 143.6 116.205 115.615 72.5158 71.5906 61.9359 52.3303 49.2039 47.7963 44.633 42.0923 43.3927 40.7429 35.4248 34.3404 28.4965 27.2186 22.8609 21.9417 19.8044 19.0855 17.1993 16.6057 15.3335 13.5039 12.9408 12.7226 11.7376 10.2321 9.76774 9.38288 9.27419 9.01524 8.77876 8.7674 8.40621 8.08885 8.08506 7.13156 6.79132 6.4858 6.26234 6.12675 6.04801 6.00894 5.60598 5.58592 5.54251 5.49152 5.33231 5.32128 5.54978 5.04208 5.01714 4.68127 4.67021 4.1032 4.06985 3.8371 3.65353 3.61619 3.43684 3.43014 3.37982 3.15549 3.11575 3.04986 3.00627 2.96418 2.83074 2.80049 2.70186 2.52664 2.52612 2.50879 2.46414 2.38818 2.38603 2.02574
threshold=-0.16388164951220252 0.40136378175918858 -0.84554561697635289 -0.45768701140416168 0.027134168132349399 -0.3586882693184103 0.14566375848937321 -3.7446098994976555 1.5948513453831126 -0.0085839173734905388 -0.09718687993933571 1.0000000180025095e-35 0.059695896804348343 -0.25570047191172873 -0.23157908862588539 -0.10506165158305812 0.14660747059199133 -0.012856549843701376 -0.096394740544285512 -0.66945342019481602 -0.29074528298594365 0.15890440715659551 0.26538204909785118 -0.71116732148314721 -0.23399811601158801 -0.24610507761269404 -0.60457999026750253 0.48710942110544209 -0.13048665345049903 -0.18823136539420393 -0.26278953904573371 0.16865578741251755 -0.13755070985330384 -0.29488128001633745 -0.089921648580592831 -0.01571707052126245 -0.097855599349120775 -0.17138394377363578 -0.07346582894385624 1.5769264243268837 -0.07346582894385624 3.6999162005539499 -1.337034219897947 0.060433629351130246 -0.008988299636985898 -0.25975194828002274 -0.57797425410023184 -0.29488128001633745 -0.088554100083174672 0.24900932484326793 -0.38075702396806849 -0.22744456952123168 0.1906461465026473 0.53789133813658507 -0.31557101373213658 -0.43241373859601878 0.8983296703738527 -0.55962860406224169 -0.27742641389475159 -0.76014165402894018 1.6856154533548164 -0.17179335105071852 1.0524019219914653 -0.12305808347444532 -0.094178873701786028 -0.19001880127783399 -0.084856856224867397 -0.0068848987570163771 -0.17179335105071852 -0.040020481720844013 -0.7126213884832201 0.36780748887579889 -0.35208157578639471 -0.13336368546575791 0.16341799413828398 -0.082933240220898138 -0.1057055372423748 -0.10945693636339361 -0.13755070985330384 0.10940473421595825 -0.7840788198198968 0.015085464207721661 -0.25924681856632698 0.14048811105355172 0.99159888767373128
decision_type=2 2 2 2 2 2 2 2 2 2 2 2 2 2 2 2 2 2 2 2 2 2 2 2 2 2 2 2 2 2 2 2 2 2 2 2 2 2 2 2 2 2 2 2 2 2 2 2 2 2 2 2 2 2 2 2 2 2 2 2 2 2 2 2 2 2 2 2 2 2 2 2 2 2 2 2 2 2 2 2 2 2 2 2 2
left_child=1 3 7 4 9 18 11 55 16 14 25 29 22 31 26 -6 17 35 80 44 37 41 39 49 43 -7 36 52 -27 69 -14 46 -29 -18 58 -3 -1 81 71 50 -17 -10 -26 -21 -9 -24 75 -23 62 84 73 -31 83 -35 -28 -2 57 -36 72 77 68 82 -19 -25 -32 -48 -51 79 -22 -5 -38 -20 -16 -8 -40 -13 -56 -30 -41 -34 -4 -11 -42 -15 -12
right_child=2 8 5 6 15 10 12 19 21 20 23 13 30 27 34 40 33 48 38 24 60 47 45 63 42 28 54 32 59 51 64 -33 67 53 56 -37 70 -39 74 78 61 -43 -44 -45 -46 -47 65 -49 -50 66 -52 -53 -54 -55 76 -57 -58 -59 -60 -61 -62 -63 -64 -65 -66 -67 -68 -69 -70 -71 -72 -73 -74 -75 -76 -77 -78 -79 -80 -81 -82 -83 -84 -85 -86
leaf_value=-0.080019703729587235 -0.17517586882465783 -0.0059192554380744621 -0.093631770845458692 0 -0.11375508675951031 0.006474346299117013 0.019253284081626333 -0.13477389044166854 0.076967622956228943 -0.0082456981632534794 -0.010466759766878719 -0.0035513671569871652 0.01054196597376284 0.015248347475710999 0.0050798491310555336 -0.0595423844951831 0.032438781061628404 0.052596153708641791 -0.065986479153249677 0 0.01737972770218164 0.040072698857610868 0.048242582532139817 0 -0.10742800989651391 -0.061422424847849724 -0.01764703388053648 0.049068751832798158 -0.053260856834120782 -0.07996613531414716 -0.069076005649811742 -0.02362471425165243 0.032319375750526617 0.00086392931483722339 -0.0071607108222725797 0.033375044345784755 -0.034608602277468141 0.0064466017160748632 -0.04140308926902516 0.039197437939254731 -0.024052111262339651 0.098968603119862705 -0.078600834327107044 -0.060268631908119062 -0.10259903159466956 0 0.002547802497239085 -0.010311769541264818 0.026368441683133695 0 0.029039407521200999 -0.026389172155139935 -0.0096423101319394987 -0.037912480771723781 -0.026553331655766427 -0.10547875876888717 0.014851188660365838 0.0076429251481402683 -0.057289983423079047 -0.060470218074476056 0.037474391125755895 -0.041583712706817738 0.064730722634216697 -0.034195898025284339 -0.019644386972369813 0.012006410671089113 0.024927916713401013 -0.0051985801538650487 -0.004234045482083333 -0.027261497338716714 -0.0201441677092461 -0.04260872869983328 -0.024759882580017021 0 -0.011175291366538392 -0.033405214013535842 0 -0.024233315942403959 0.013250844536551966 0.0044212285342890428 -0.07209750882562968 -0.00080306560581520144 0 0.028639822531714244 0.0019711775722693614
leaf_weight=28 261 36 338 76 82 38 505 384 999 610 228 332 49 1066 31 158 52 750 318 22 775 28 774 26 361 388 574 224 39 48 25 123 71 41 334 484 415 839 107 606 39 279 230 22 207 23 848 23 66 70 1082 41 43 36 25 41 211 325 22 56 92 93 878 213 48 445 79 26 36 60 264 137 38 53 54 22 229 270 53 56 268 677 40 141 101
leaf_count=28 261 36 338 76 82 38 505 384 999 610 228 332 49 1066 31 158 52 750 318 22 775 28 774 26 361 388 574 224 39 48 25 123 71 41 334 484 415 839 107 606 39 279 230 22 207 23 848 23 66 70 1082 41 43 36 25 41 211 325 22 56 92 93 878 213 48 445 79 26 36 60 264 137 38 53 54 22 229 270 53 56 268 677 40 141 101
internal_value=-0.000117015 0.0189192 -0.0736575 0.00698533 -0.00690337 -0.0472371 0.0190648 -0.120546 0.0603521 -0.0029202 -0.0292131 0.00791656 0.0315357 0.0106942 -0.0131626 -0.0594465 0.0491851 0.0518097 -0.0691966 -0.108425 0.00546452 0.0797375 0.0336111 -0.0102639 -0.0927043 -0.0460495 -0.0220272 0.0208614 -0.0489581 -0.0327825 -0.0191871 0.00122458 0.0363978 0.00259294 0.000833057 0.0302856 -0.0319856 -8.13108e-05 -0.0531605 0.0288475 -0.0444459 0.0821471 -0.0969978 -0.0285083 -0.124422 0.0469542 0.00323315 0.0147023 0.05824 0 0.0252095 -0.0590304 0.0159492 -0.0157683 -0.0132143 -0.16751 0.00375023 0 -0.0242992 -0.0347955 0.0186778 -0.028705 0.059366 -0.0305519 -0.0411505 0.00596567 0.0133961 0.0160545 0.0161828 -0.0133353 -0.029373 -0.0596912 -0.0091861 0.0173345 -0.0327915 -0.00619964 -0.00239132 -0.028988 0.0374606 0.0218314 -0.0848346 -0.00448406 -0.010296 0.017035 -0.00611543
internal_weight=20707 16449 4258 12777 5937 2730 6840 1528 3672 5525 1508 3622 3218 3397 2496 412 2343 2214 1222 1226 3029 1329 3096 717 635 791 1535 1627 753 225 122 1770 377 129 961 520 707 2126 616 2299 330 1278 591 44 591 797 1647 51 1694 478 1640 89 1250 77 828 302 870 659 91 365 903 172 1628 239 73 1293 149 153 811 136 679 455 69 558 161 354 254 309 659 127 606 1287 79 1207 329
internal_count=20707 16449 4258 12777 5937 2730 6840 1528 3672 5525 1508 3622 3218 3397 2496 412 2343 2214 1222 1226 3029 1329 3096 717 635 791 1535 1627 753 225 122 1770 377 129 961 520 707 2126 616 2299 330 1278 591 44 591 797 1647 51 1694 478 1640 89 1250 77 828 302 870 659 91 365 903 172 1628 239 73 1293 149 153 811 136 679 455 69 558 161 354 254 309 659 127 606 1287 79 1207 329
is_linear=0
shrinkage=0.0810527


Tree=6
num_leaves=86
num_cat=0
split_feature=0 1 2 11 1 8 2 7 5 5 3 1 1 3 6 1 6 5 1 5 1 6 9 9 6 1 6 6 6 3 6 9 9 3 5 9 1 8 7 2 1 6 1 3 7 1 6 7 7 6 3 7 7 7 3 3 7 9 6 3 8 9 7 7 6 2 6 1 3 7 8 9 2 6 1 6 9 7 3 8 7 3 8 6 7
split_gain=3744.44 1119.79 779.979 218.966 161.328 144.354 133.013 111.065 109.216 78.6419 51.7079 50.1116 45.9671 42.9652 41.4517 32.0822 26.9443 26.6452 21.7145 20.8687 20.2878 18.8002 15.7752 15.6159 15.5516 14.6915 14.3964 11.4704 10.8553 10.614 10.4552 10.116 9.98334 9.68738 9.38995 9.22519 8.81509 8.73863 8.66339 7.9734 7.90834 7.86057 7.17729 7.02555 6.51933 6.3579 6.20274 5.79119 6.90844 5.58775 5.37795 5.35105 5.16571 8.93262 5.00403 5.20615 4.45954 4.43106 4.20041 3.91179 3.859 3.77014 3.71301 3.55583 3.45538 3.34141 3.12842 3.02163 2.91208 2.83954 2.62029 3.05164 2.26938 2.25055 2.04657 2.00168 1.71253 1.62087 2.29586 1.57064 1.55228 2.01124 1.48525 1.44396 1.44156
threshold=-0.2323167643448516 -0.13884080371385227 -0.56408519294767989 1.2190963399269255 -0.5530773720719383 -0.22559387912193987 -2.1327867830433251 1.0810766592836509 -0.040020481720844013 0.0711113469753369 -0.096394740544285512 0.31918114974189726 -0.75535871646536157 -0.084856856224867397 0.078134624264290145 -0.57848083621968971 -0.26278953904573371 0.53789133813658507 -0.37402002833669717 0.093738070833010875 1.8312979535930041 -0.18823136539420393 0.086854226266179002 0.085527051478395608 -0.020507470291424551 -0.41481323861451519 -0.2762359863561496 -0.42968678970503321 -0.31088989277047047 -0.1044810816989588 0.052177338853769975 0.086312746282068017 0.086673552035529219 -0.08100776825829907 0.059695896804348343 0.086776587721590442 0.081574538239220271 1.6895646060898819 0.49777647284625937 -4.3556171987205436 1.2404441808391151 -0.27949403061208766 -0.91693659479860579 -0.077969897936424101 2.2761159338712389 -0.53637172786577036 -0.19694093024045725 -0.10665906087562875 -0.76014165402894018 -0.35420177802173808 -0.067822777759278294 1.5298409569585731 -0.76014165402894018 -0.070413072390852219 -0.094178873701786028 -0.0022693085247641599 2.0810050722209845 0.086854226266179002 0.16865578741251755 -0.10627886696428182 0.71587354525466618 0.086993545867229446 -0.079143044217587125 -0.23157908862588539 -0.13942360290655695 -1.1514003748641628 -0.22714119542451891 -0.63672322724161601 -0.077969897936424101 -0.7507643486672062 0.21838957737979622 0.086660927944304328 0.15727977588266326 1.0000000180025095e-35 -0.30586323272678051 -0.088554100083174672 0.08689235891013701 -0.76014165402894018 -0.089113346426981349 0.60565238554590917 -0.76014165402894018 -0.10945693636339361 -0.18302322114412475 -0.18823136539420393 -0.09751973428799969
decision_type=2 2 2 2 2 2 2 2 2 2 2 2 2 2 2 2 2 2 2 2 2 2 2 2 2 2 2 2 2 2 2 2 2 2 2 2 2 2 2 2 2 2 2 2 2 2 2 2 2 2 2 2 2 2 2 2 2 2 2 2 2 2 2 2 2 2 2 2 2 2 2 2 2 2 2 2 2 2 2 2 2 2 2 2 2
left_child=1 4 6 8 7 13 15 9 11 12 26 58 30 29 18 39 45 27 44 20 -5 -17 60 -11 40 63 -7 -10 -19 69 38 -30 -28 41 56 -16 73 -21 42 -2 76 -20 84 46 59 -8 -14 48 -15 -25 77 74 -31 -54 75 72 83 -42 70 -6 -12 -52 -61 -18 -49 -27 -22 -45 -32 -4 71 -3 -56 -24 -35 -29 -13 78 -38 -74 81 -34 -53 -9 -1
right_child=2 3 5 19 14 10 16 34 17 23 22 24 43 47 35 21 25 28 33 37 66 -23 36 49 -26 65 32 54 31 52 68 -33 80 51 -36 -37 50 -39 -40 -41 57 -43 -44 67 -46 -47 -48 64 -50 -51 61 82 53 -55 55 -57 -58 -59 -60 62 -62 -63 -64 -65 -66 -67 -68 -69 -70 -71 -72 -73 79 -75 -76 -77 -78 -79 -80 -81 -82 -83 -84 -85 -86
leaf_value=-0.035861656451413086 -0.17118554562865351 0.011875764253402338 -0.055083589952933533 0.060644539786654496 -0.023498987066770484 0.010180143419955018 -0.05104943073455373 0.020728969055974624 0.037378059900759882 -0.11337683715903142 -0.037776157645714188 0.032813536320564968 -0.011421177027654016 0 -0.068636505676312715 -0.034373752677671905 -0.110527352895921 0.0024702510062823194 0.0085531838787157536 0.048460435044442869 0.082455129890851228 -0.11315614011260829 0.0004633467570860867 -0.0041370248650358689 0.0072764916540501608 -0.08761029527692514 -0.052903381697356797 0 -0.092414466342789131 -0.026244131740380178 -0.074856455210767392 -0.025104283953479814 -0.045269643541096756 0.013282824392311057 -0.014360400538351475 -0.015315564042253208 -0.0048923154988983813 0 0.010331597140499254 -0.13083552659750214 0.014309776715518602 -0.035449616358365861 -0.018691654424781757 -0.0070698475903219361 0.033849998603173378 0 -0.058148838665633328 0 -0.048738351144374532 -0.05806959597214164 -0.0014400533287160856 0.017504969000239165 -0.074385653770467852 -0.049619995967957659 0 -0.01306464237831525 0.038300958180041367 0.067289458099501584 0 0.0047004985713244192 -0.0067705004761702591 0.027403788451398969 0.011964656817169779 -0.086334546483861949 -0.027354558638711047 -0.064248756828700099 0.044880889559070637 -0.0010578000080076978 -0.031375422795395291 -0.093695905751065747 0.037770053729918318 0.029967730789157116 0 -0.016786247779331149 0.019738445391271488 -0.03063524590521691 0.049175521846289892 -0.013267875830040689 0.010062331771524682 0.029305031429779096 -0.048094826254196074 -0.021524450931179964 0.039937327800589423 0 -0.0027725053223956733
leaf_weight=298 169 106 64 863 23 36 22 112 82 45 94 146 99 25 39 33 298 38 76 44 825 245 43 24 66 215 225 36 22 54 35 80 47 809 24 74 92 40 44 281 22 35 896 1206 58 28 27 37 224 89 24 77 286 318 58 43 271 319 23 2008 61 114 681 313 190 279 50 1160 60 164 538 1431 27 158 1279 29 1319 36 164 77 49 313 123 28 22
leaf_count=298 169 106 64 863 23 36 22 112 82 45 94 146 99 25 39 33 298 38 76 44 825 245 43 24 66 215 225 36 22 54 35 80 47 809 24 74 92 40 44 281 22 35 896 1206 58 28 27 37 224 89 24 77 286 318 58 43 271 319 23 2008 61 114 681 313 190 279 50 1160 60 164 538 1431 27 158 1279 29 1319 36 164 77 49 313 123 28 22
internal_value=-0.000133775 0.0185381 -0.0637163 0.0451953 0.00127974 -0.0365622 -0.104127 -0.0100831 0.035398 -0.0143428 -0.0185686 0.0398593 -0.0119506 -0.0555756 0.0108662 -0.132021 -0.0860731 -0.000255462 0.0119626 0.0689848 0.0709687 -0.104949 -0.00416492 -0.070068 0.0496958 -0.0887753 -0.0350949 0.011273 -0.0301256 -0.0664034 -0.0239875 -0.0437159 -0.0379908 0.0176555 0.028537 -0.0366675 0.00129098 0.0247465 -0.0216701 -0.147487 0.0511294 -0.00432024 -0.023002 -0.00531015 0.00695165 -0.0211773 -0.0240349 -0.0347328 -0.0442715 -0.048616 0.00808652 0.018806 -0.0594607 -0.0619761 0.00233245 0.00911855 0.0315746 0.0645666 0.0309334 0.00627006 -0.0271117 0.0211723 0.00662008 -0.0989429 -0.0230081 -0.0752794 0.0806866 -0.00420485 -0.0511631 -0.0845552 0.0313168 0.0288659 0.0162522 -0.0122504 0.0173487 -0.0158141 0.0477441 0.001121 0.00398814 0.0233703 -0.0289985 -0.0254973 0.0326102 0.0167155 -0.0342024
internal_weight=20707 16006 4701 6284 9722 2818 1883 4440 4462 4005 1456 3970 3847 1362 5282 728 1155 492 5169 1822 1738 278 786 158 1872 1105 670 352 140 886 1355 102 634 2399 435 113 631 84 1260 450 1806 111 1216 2492 2770 50 126 476 249 113 430 2288 658 604 270 205 411 341 2098 2712 155 138 2689 611 227 494 875 2366 95 228 2075 1537 162 201 2088 65 1465 292 256 104 409 360 200 140 320
internal_count=20707 16006 4701 6284 9722 2818 1883 4440 4462 4005 1456 3970 3847 1362 5282 728 1155 492 5169 1822 1738 278 786 158 1872 1105 670 352 140 886 1355 102 634 2399 435 113 631 84 1260 450 1806 111 1216 2492 2770 50 126 476 249 113 430 2288 658 604 270 205 411 341 2098 2712 155 138 2689 611 227 494 875 2366 95 228 2075 1537 162 201 2088 65 1465 292 256 104 409 360 200 140 320
is_linear=0
shrinkage=0.0810527


Tree=7
num_leaves=86
num_cat=0
split_feature=10 4 2 8 5 8 2 5 11 8 7 4 7 3 3 8 5 8 3 5 3 6 4 8 5 6 6 3 6 6 4 6 2 9 3 3 8 4 9 2 7 3 8 4 9 9 7 2 5 8 6 7 7 6 7 7 4 7 4 7 3 3 4 3 4 6 5 4 4 3 4 7 3 6 7 4 7 9 7 6 6 2 5 4 3
split_gain=3178.47 866.025 631.473 248.971 130.115 120.391 108.196 81.2746 68.2852 65.8917 65.4375 63.0353 43.2262 37.9342 28.0112 24.859 24.2312 25.4816 23.4497 22.4409 21.8874 16.9382 16.529 15.4307 15.137 14.9884 14.7744 12.6944 12.4819 12.0602 10.4319 10.1429 9.62596 9.60978 8.9404 8.77892 8.65582 8.1461 7.9984 7.54105 7.45676 7.44177 7.40935 6.86875 6.78037 6.36142 6.1364 5.63697 5.41976 5.56891 5.35035 5.32368 9.5667 4.92119 4.75359 4.65106 4.64703 4.31055 4.06668 4.005 3.34321 3.23828 3.21746 3.00828 2.99101 2.97921 2.88123 2.79577 2.66438 2.51853 2.39221 2.34997 2.31104 2.28061 2.08147 1.96982 1.84102 1.83334 1.81659 1.77954 1.76746 1.63162 1.63113 1.59329 1.50124
threshold=-0.2288905717748782 0.48426766209910937 -0.56408519294767989 -0.3586882693184103 0.0711113469753369 -0.23922277897364216 -2.7339188873024223 -0.040020481720844013 1.5948513453831126 0.14048811105355172 -0.26590996025152003 -0.54078849800825657 0.086073488724982897 -0.09718687993933571 -0.084856856224867397 -0.6096578852140665 0.53789133813658507 -0.14459832142254012 -0.11586328507496355 0.72974552163081119 -0.027540349498250238 -0.29488128001633745 -0.17694123611575269 -0.31779810825253241 0.15890440715659551 -0.0470991133904149 -0.12305808347444532 0.030298616819018017 0.078134624264290145 -0.2762359863561496 -0.59992933961667438 -0.37784059654119367 -0.034931929945185 0.086946691318563196 -0.10800244139606303 -0.08578755673260359 -0.65921553611617767 -0.19983713664238376 0.086673552035529219 -0.35070563487192735 0.81437287640723499 -0.080078161937408562 0.76997519457049146 3.8318352738117389 0.086993545867229446 0.086645082166727672 2.1797785175757376 -1.337034219897947 -0.10614593493313963 0.82485604993118422 -0.27949403061208766 -0.76014165402894018 -0.15558597281542394 -0.2762359863561496 -0.16242514058766291 -0.28547457602904719 -0.11156116705983578 0.76468254585508089 -0.17138394377363578 0.66831016263528398 -0.051728030419593278 0.021190554804508956 -0.31063603448554195 -0.036423512231470619 -0.65245337095850819 -0.30158772212287793 -0.13336368546575791 -0.074161716156604232 0.56259033179369766 -0.090785228039429067 -0.58338250815291903 -0.7507643486672062 0.0030263061543408304 -0.15356928702213177 -0.76014165402894018 -0.78016605621991264 -0.2453365875602066 0.086627842246136066 0.13087075510263182 0.10940473421595825 -0.26752292044457754 0.24846707466768225 -0.21185979694233259 -0.50560926688227503 -0.10271805276192728
decision_type=2 2 2 2 2 2 2 2 2 2 2 2 2 2 2 2 2 2 2 2 2 2 2 2 2 2 2 2 2 2 2 2 2 2 2 2 2 2 2 2 2 2 2 2 2 2 2 2 2 2 2 2 2 2 2 2 2 2 2 2 2 2 2 2 2 2 2 2 2 2 2 2 2 2 2 2 2 2 2 2 2 2 2 2 2
left_child=1 3 6 4 10 14 23 9 16 12 11 25 37 29 34 55 17 35 -6 31 26 -17 45 -2 43 36 59 58 42 -7 33 -9 40 -20 -4 -3 63 60 -31 -21 76 -28 57 -10 81 -15 56 -23 49 -19 -32 -36 -53 -18 71 -8 66 -11 72 64 70 73 -34 -1 -12 -26 78 -41 -46 -52 -5 -16 -13 -14 84 -47 -33 -56 -22 -25 -60 -24 -27 -79 -40
right_child=2 8 5 7 18 13 15 19 24 28 20 27 61 22 54 21 53 48 30 39 46 47 44 79 65 82 41 -29 -30 38 50 32 62 -35 51 -37 -38 -39 74 67 -42 -43 -44 -45 68 75 -48 -49 -50 -51 69 52 -54 -55 77 -57 -58 -59 80 -61 -62 -63 -64 -65 -66 -67 -68 -69 -70 -71 -72 -73 -74 -75 -76 -77 -78 83 -80 -81 -82 -83 -84 -85 -86
leaf_value=-0.030239018925516208 -0.13900830740593581 -0.019661693384807288 -0.086502264610602328 -0.028774708293353445 -0.12905041022946528 0.012226093849425478 -0.10888122760211463 0.019440823011116021 0.065953362408728788 0.024596046395299394 -0.0082892376774572757 -0.0097551271086509239 0.022116406400711133 -0.045784971071389499 -0.0068874645279598324 -0.0022139548297880961 0.011326600860692771 0.042742004555764122 -0.072473996809000463 -0.07400435951465896 0.0058541399901756649 -0.086985881466808176 -0.00051777542523798062 -0.039907155748314972 0.033944194608497631 -0.025673105624308846 -0.048771921613383805 0.0059347200140976372 0 -0.049272670197498154 0.002113984537426289 -0.022735914315663217 -0.012798150548980116 -0.017038232756906052 -0.026378990557598153 0.027007807569827888 -0.010084111909655528 0.014988611621656552 -0.02898414526892739 -0.034103785123829417 0 -0.0073020513638664053 0.045414740459400395 0.089050376994536995 0.0061080873700804679 -0.033067058640940616 0.032796901802153326 -0.064162396883731349 0.033479881081542269 0.056357412488988096 -0.048770712372743497 -0.07320239807406026 -0.048913908818143274 -0.03495007078162278 -0.050205567794841997 -0.084860343616475029 0.020550845700457981 0.038267619864230995 0.0039926146301581473 0.012714353598334605 0.0046503348472411695 0.029994652313959671 0.007738982957538834 -0.017038020127050628 0.0047258046049784468 0 -0.0093927027554620412 0 0.026951202742562463 -0.003363245179516305 0 -0.04800665038753657 -0.0027024088815798025 0 -0.04791432553611813 -0.0098766015698414696 -0.070079296215926581 -0.021841829174490884 0.014193470520236095 -0.098584262765850889 -0.012688706745824304 -0.023215081573693293 -0.063817313245615584 0 -0.013479007822407936
leaf_weight=388 404 22 126 29 28 29 306 101 1082 434 181 783 848 48 22 28 22 556 117 38 398 258 109 23 27 39 51 1255 64 223 30 34 79 39 62 317 530 623 201 42 25 91 642 186 141 34 135 384 218 887 34 279 380 25 23 352 476 489 394 235 1073 830 125 316 310 22 36 26 83 23 66 193 650 36 46 333 24 170 558 68 40 30 62 24 137
leaf_count=388 404 22 126 29 28 29 306 101 1082 434 181 783 848 48 22 28 22 556 117 38 398 258 109 23 27 39 51 1255 64 223 30 34 79 39 62 317 530 623 201 42 25 91 642 186 141 34 135 384 218 887 34 279 380 25 23 352 476 489 394 235 1073 830 125 316 310 22 36 26 83 23 66 193 650 36 46 333 24 170 558 68 40 30 62 24 137
internal_value=-0.000151274 0.0166125 -0.0602637 0.00699088 -0.00297175 -0.0351538 -0.0971309 0.0197614 0.0532045 0.0227942 -0.000777354 -0.00666573 0.0164134 -0.0185915 -0.0532301 -0.0842609 0.0435533 0.0449245 -0.0577438 -0.0113328 0.00976463 -0.0712977 -0.00625189 -0.130533 0.0679257 -0.0213856 -0.000400047 -0.000297455 0.0363524 -0.0332938 -0.0472239 -0.00169078 -0.00988924 -0.0603813 -0.0621533 0.02329 -0.0185984 0.00744314 -0.0358207 -0.043874 -0.0326051 -0.024198 0.0377852 0.0696996 0.00598622 -0.0173581 0.0153724 -0.0740014 0.0491771 0.0513433 -0.0203058 -0.0572844 -0.0597752 -0.0102981 -0.0349885 -0.0967776 0.0135783 0.0321432 -0.00458751 0.004089 0.00323252 0.025649 0 -0.0246755 0 0.017068 0.00999382 -0.0219133 0.0149055 -0.0346336 -0.0105503 -0.0447992 -0.00669649 0.0212697 -0.0271959 -0.0127847 -0.0479399 -0.0239309 0.0109433 -0.0875438 0.00195566 -0.0071126 -0.0520771 -0.0191289 -0.0234198
internal_weight=20707 16191 4516 12827 7199 2693 1823 5628 3364 5134 6928 4457 3505 1414 1279 1328 2047 2000 271 494 2471 670 778 495 1317 1335 868 3122 1629 636 243 388 287 156 847 339 1234 1791 607 106 83 142 1565 1268 363 415 1603 642 1661 1443 87 721 659 47 432 658 1468 923 1867 726 1168 1714 204 704 491 49 992 68 224 57 95 215 1433 884 384 367 58 217 956 91 434 139 101 194 338
internal_count=20707 16191 4516 12827 7199 2693 1823 5628 3364 5134 6928 4457 3505 1414 1279 1328 2047 2000 271 494 2471 670 778 495 1317 1335 868 3122 1629 636 243 388 287 156 847 339 1234 1791 607 106 83 142 1565 1268 363 415 1603 642 1661 1443 87 721 659 47 432 658 1468 923 1867 726 1168 1714 204 704 491 49 992 68 224 57 95 215 1433 884 384 367 58 217 956 91 434 139 101 194 338
is_linear=0
shrinkage=0.0810527


Tree=8
num_leaves=86
num_cat=0
split_feature=10 1 2 4 6 1 1 5 2 9 9 3 3 1 1 3 11 5 1 6 6 5 0 4 2 1 2 5 1 6 3 1 1 3 3 5 6 2 3 6 9 9 1 1 0 11 4 5 5 3 1 3 3 5 3 4 1 2 2 1 1 6 2 2 6 1 6 1 1 1 3 6 5 4 9 5 3 9 6 1 6 6 1 6 4
split_gain=2694.33 819.323 535.277 162.339 132.234 111.331 99.2162 85.9143 71.3517 49.9078 44.8733 30.8066 29.1788 28.986 26.8286 22.2737 21.6936 18.404 17.8026 16.9196 14.6347 13.7463 13.7072 12.2847 11.1873 10.617 10.608 10.1358 9.94219 9.51732 9.2325 8.06919 7.80944 10.5706 7.80124 7.1531 6.84358 6.65418 6.5461 6.19605 6.05971 5.84485 5.19793 4.64769 4.3022 4.63164 4.0528 3.98149 3.85291 4.15224 3.32764 3.24101 2.98924 2.76234 2.75065 2.61135 2.45153 2.43301 2.24296 2.22803 1.9906 1.9189 1.79146 1.70171 1.68177 1.62367 1.62229 1.4672 1.38725 1.38423 1.35702 1.34798 1.53952 1.27742 1.25001 1.80446 1.23316 1.16636 1.16575 1.15851 1.1213 1.11915 1.11082 1.09342 1.0814
threshold=-0.2288905717748782 -0.13884080371385227 -0.84554561697635289 1.0415266627557729 0.027134168132349399 -0.39371194813330507 -0.51067051812297515 -0.040020481720844013 -3.7446098994976555 0.086743701913971169 0.08640242130498807 -0.096394740544285512 -0.038501607102100092 0.24827994694716607 -1.0507096332279817 -0.096394740544285512 2.269814546435605 0.53789133813658507 -0.010452272322290351 -0.2762359863561496 1.0000000180025095e-35 0.22126553887525788 0.020588011795822602 -0.26604696578967468 -1.337034219897947 -0.87508988533680709 -1.5494144627137052 0.14660747059199133 -0.33353989580955606 -0.37603298136826341 -0.08100776825829907 -1.1352361479478206 -0.68618510202855976 0.02405564892756273 -0.066759797668544577 0.15890440715659551 -0.31362642136628999 -0.034931929945185 -0.095610824519251 0.35885037816555937 0.084486518308255071 0.086503268312740481 0.16846522268417288 1.2787656139960299 -0.28915596529918403 4.7767770706540054 -0.26604696578967468 -0.22405768796406281 0.53789133813658507 -0.088327373096626291 1.4001096477624617 -0.042907027641403493 -0.10739127445898135 -0.11109410885166913 -0.10945693636339361 -0.061136722452286275 -0.7891066016683802 0.16394245062731408 0.13537684340407025 1.4982040980738833 -0.6083423947557447 -0.34987175553651489 0.12691360276280586 -1.4492829616592029 -0.26278953904573371 -0.68124813818000018 -0.13942360290655695 0.67238966422621205 -0.60418880184566559 -0.45301666771391613 0.010900517441769538 -0.13942360290655695 -0.20694165863202449 -0.48260930118031325 0.086854226266179002 -0.082933240220898138 -0.022785540080866865 0.087248400874777574 -0.34571217854496666 -0.44866468157729578 -0.20404063624174842 0.078134624264290145 -0.79634153926852635 -0.45915222335879341 -0.51554633360699642
decision_type=2 2 2 2 2 2 2 2 2 2 2 2 2 2 2 2 2 2 2 2 2 2 2 2 2 2 2 2 2 2 2 2 2 2 2 2 2 2 2 2 2 2 2 2 2 2 2 2 2 2 2 2 2 2 2 2 2 2 2 2 2 2 2 2 2 2 2 2 2 2 2 2 2 2 2 2 2 2 2 2 2 2 2 2 2
left_child=1 4 8 7 6 11 12 13 66 19 63 52 24 57 -14 54 21 29 26 -7 43 50 -20 77 27 31 -10 -1 58 76 36 -26 33 70 80 44 83 42 55 51 -21 -42 -31 74 45 -18 -39 56 49 -25 -5 -12 60 -52 -11 -19 -35 64 73 -23 -4 -55 -51 -6 -3 -27 -2 -22 -34 -60 82 -36 -73 78 75 -15 -9 84 -8 -41 -13 -40 -16 -30 -17
right_child=2 3 5 16 10 9 28 17 18 15 39 34 14 20 32 23 35 38 22 40 67 59 -24 48 25 65 -28 -29 30 37 -32 -33 68 47 71 -37 -38 46 81 79 41 -43 -44 -45 -46 -47 -48 -49 -50 62 53 -53 -54 61 -56 -57 -58 -59 69 -61 -62 -63 -64 -65 -66 -67 -68 -69 -70 -71 -72 72 -74 -75 -76 -77 -78 -79 -80 -81 -82 -83 -84 -85 -86
leaf_value=-0.018018782033659593 -0.072217655793142932 0.01660167974183754 -0.09498316047772247 0.044463706507510581 -0.1105392263703677 0.01390962671403116 0 0.032363398128516463 -0.10041990846785698 -0.046268015394771718 -0.020900293230049008 -0.01182917987047106 0.033853393558685219 0.03001236490066668 -0.015069359869910159 -0.015892286034724666 0.065717283957896527 -0.061300829206578748 0 0 -0.012211258406904332 0.021860784095575025 -0.068494587549521535 -0.0035844199541154582 0.013969779206900715 -0.011211217575302643 -0.076709975903104077 -0.089702468121851092 -0.0019928342803440294 0 0.017385035852282221 -0.027131766342910729 -0.0024309566841889062 0.035299929948264717 0 0.015520489102763681 -0.034504581543353591 -0.012174086029573336 9.2321856222014892e-05 -0.042328927829112857 -0.054762609246106292 -0.033459452397684705 -0.044426154655587601 0.056384714485615134 0.018272966873691298 0.093094660652531525 0.013218574813459522 -0.0035382096905825881 -0.0070917678898981826 0 0.059131074892560927 0.0018725250324901994 -0.061099047968374398 0.044706472053220377 -0.022116614852772967 -0.018654365745017217 0.0027823719203658019 0.026411251439832879 0.0055301990170713222 -0.0085607321692230502 -0.053519101916277095 0.0073516482079108436 0.019532725222742884 -0.063167049076113535 -0.00052625265564873339 -0.0027242166786860251 -0.13692837971247837 0.011029742765308404 0.0016814032739053369 0.010214779348276063 0 -0.0057782466725474239 -0.032683059458867694 0.0048433228494958536 0.0406622374434037 0 0.00028432631047748053 -0.028933788495449655 -0.01974491762324632 -0.016365097600325978 -0.04684173877187333 -0.01672973036135943 -0.0083792191338129922 0.014223381381358362 -0.003502976270681741
leaf_weight=46 27 140 106 673 48 29 45 78 564 56 82 23 131 108 442 146 643 38 22 27 23 24 259 67 26 411 384 24 23 22 1752 405 928 48 28 28 35 50 37 128 296 245 34 202 23 109 133 45 76 22 570 53 425 39 357 39 42 1740 884 26 54 31 209 65 24 343 266 44 1274 1575 101 42 74 113 1399 23 22 42 31 48 531 30 643 48 139
leaf_count=46 27 140 106 673 48 29 45 78 564 56 82 23 131 108 442 146 643 38 22 27 23 24 259 67 26 411 384 24 23 22 1752 405 928 48 28 28 35 50 37 128 296 245 34 202 23 109 133 45 76 22 570 53 425 39 357 39 42 1740 884 26 54 31 209 65 24 343 266 44 1274 1575 101 42 74 113 1399 23 22 42 31 48 531 30 643 48 139
internal_value=-0.000169982 0.0152637 -0.0555159 0.0379485 0.000592366 -0.0354595 0.00261103 0.0285011 -0.0946936 -0.021681 -0.0434901 -0.0535932 -0.00533388 0.0326963 -0.00161097 -0.0112629 0.0560537 -0.00328923 -0.0852321 -0.0406537 0.0402808 0.0490333 -0.0633359 -0.00214834 -0.0159965 -0.0138333 -0.0912967 -0.047925 0.0113047 0.00661455 0.0159519 -0.0241469 -0.00301089 -0.00793 -0.0410593 0.067503 -0.00587646 -0.00153206 -0.0274865 -0.0262532 -0.0438217 -0.0457031 -0.0257475 0.0417204 0.0690749 0.070303 0.00520877 0.0127505 0.00754591 0.0119218 0.0506343 -0.0107987 -0.0679343 0.0565869 -0.0261593 -0.0435782 0.0227009 0.025379 0.00795978 0.0030358 -0.0834254 0.0317013 0.017188 -0.0873384 0.0130386 -0.00761965 -0.132422 0.00025323 0 0.0086143 -0.0104656 -0.021012 -0.0248905 0 0.0395522 0.0256514 0.0273051 -0.0137559 -0.00845982 -0.0366848 -0.0457922 -0.0052501 -0.0113088 0.00664403 -0.0105898
internal_weight=20707 16191 4516 6352 9839 2994 9415 4186 1522 1711 424 1283 4909 3703 3654 1114 2166 483 1229 597 1799 1363 281 701 1255 1185 948 70 4506 339 1858 431 3523 1321 698 803 106 239 144 311 568 541 56 1732 775 752 183 135 374 298 1313 135 585 640 413 77 90 1904 2648 50 160 70 231 113 164 754 293 67 2202 2459 1186 144 116 189 1530 131 100 327 76 176 554 67 1085 71 285
internal_count=20707 16191 4516 6352 9839 2994 9415 4186 1522 1711 424 1283 4909 3703 3654 1114 2166 483 1229 597 1799 1363 281 701 1255 1185 948 70 4506 339 1858 431 3523 1321 698 803 106 239 144 311 568 541 56 1732 775 752 183 135 374 298 1313 135 585 640 413 77 90 1904 2648 50 160 70 231 113 164 754 293 67 2202 2459 1186 144 116 189 1530 131 100 327 76 176 554 67 1085 71 285
is_linear=0
shrinkage=0.0810527


Tree=9
num_leaves=86
num_cat=0
split_feature=3 1 2 6 10 11 6 6 7 1 7 2 1 1 1 10 3 7 1 5 1 5 3 1 9 5 7 7 8 5 9 7 11 6 8 3 8 1 5 6 7 5 8 3 2 1 9 6 1 5 6 8 3 1 5 3 10 6 3 3 2 7 6 2 9 10 7 5 8 5 1 5 7 3 1 1 6 3 2 3 6 6 6 3 6
split_gain=2285.98 705.215 328.125 159.672 158.475 157.977 92.479 89.493 73.9235 74.3441 62.6585 51.7479 34.4868 28.6505 27.8501 25.3794 22.422 20.3417 16.5716 15.6144 15.5548 15.3318 12.1984 11.9527 11.304 11.0278 9.55985 10.4578 9.07313 8.50195 8.32726 8.27725 7.27531 7.08829 6.92401 6.70041 6.55269 6.52526 6.18575 5.96021 5.69543 5.54208 4.10761 3.81513 3.79828 3.75544 3.70934 3.4685 3.31596 2.91674 2.77611 2.73926 2.48788 2.44133 2.40987 2.3991 2.24407 2.15235 1.93001 1.8441 2.40981 1.82758 1.65509 1.60588 1.58221 1.54064 1.57727 1.43377 1.43344 1.37569 1.36437 1.30303 1.26286 1.2245 1.17764 1.17373 1.10368 1.04233 1.03325 1.00301 0.9912 0.908162 1.03322 0.815751 0.730463
threshold=-0.094178873701786028 -0.17136350852860754 -1.337034219897947 -0.18823136539420393 -0.29483621542911875 1.0782972512136875 -0.31362642136628999 1.0000000180025095e-35 0.086073488724982897 -0.68618510202855976 -0.74346035745452765 -3.7446098994976555 0.044357555696497859 0.24827994694716607 -0.6268938066019919 -0.33617785208582512 -0.10852846772376352 1.7522025356002631 1.4982040980738833 -0.094186232976018636 -0.51416478940202304 0.17388595138214083 -0.1057055372423748 -0.93809094914035951 0.086854226266179002 0.22126553887525788 -0.070413072390852219 -0.76014165402894018 -0.7126213884832201 0.1906461465026473 0.086946691318563196 0.8983296703738527 4.2100224528912102 -0.39790013122966766 -0.7003587203059326 -0.08578755673260359 -0.65418386408880347 0.74496459327276643 -0.24045488274809987 -0.13942360290655695 -0.086467872349960603 -0.076117545862947333 1.3029424436865138 -0.072320082687709161 0.45374984125115642 -0.37876894694693009 0.086923608719729775 0.10940473421595825 -0.88373082541466752 0.11912062171521458 -0.31929023107205529 -0.3250916445826304 0.010142183544195743 -0.83437354026589639 0.10773119482949971 -0.072320082687709161 -0.30213168612111158 -0.068880966023183457 -0.046220359989286731 -0.075831728112079597 0.28847913282309534 0.19246889473053605 -0.23399811601158801 -0.049666617989721697 0.086164404353529622 -0.28329543989938077 0.66831016263528398 0.0711113469753369 -0.5511858788469669 -0.11109410885166913 -0.31067942786246111 -0.0073417955272904369 1.3043638685311978 -0.097855599349120775 -0.48201184750762821 -0.5530773720719383 -0.0470991133904149 -0.10271805276192728 0.23326123376783217 -0.045117790229045274 -0.15356928702213177 -0.38598863595683447 -0.31643437169461291 -0.074870156322001877 -0.27949403061208766
decision_type=2 2 2 2 2 2 2 2 2 2 2 2 2 2 2 2 2 2 2 2 2 2 2 2 2 2 2 2 2 2 2 2 2 2 2 2 2 2 2 2 2 2 2 2 2 2 2 2 2 2 2 2 2 2 2 2 2 2 2 2 2 2 2 2 2 2 2 2 2 2 2 2 2 2 2 2 2 2 2 2 2 2 2 2 2
left_child=2 4 6 12 8 7 14 13 9 23 16 -8 29 41 21 18 67 28 -7 37 75 -1 34 -2 -9 31 27 -6 47 36 80 73 49 -16 -12 -21 -4 -15 -29 -28 70 65 44 -44 59 76 -41 -10 61 -20 -27 -18 69 -25 68 -32 81 -53 62 -26 -61 -13 -43 -47 -31 66 -3 -5 84 -19 -24 -46 74 -14 -38 79 -22 -59 -39 -11 -17 -37 -83 -48 -30
right_child=1 5 3 10 26 15 11 24 17 20 22 48 25 19 33 30 51 52 32 35 45 -23 40 53 42 50 39 38 54 64 55 -33 -34 -35 -36 56 72 78 -40 46 -42 58 43 -45 71 63 83 -49 -50 -51 -52 57 -54 -55 -56 -57 -58 77 -60 60 -62 -63 -64 -65 -66 -67 -68 -69 -70 -71 -72 -73 -74 -75 -76 -77 -78 -79 -80 -81 -82 82 -84 -85 -86
leaf_value=-0.0049187542329797657 -0.032888275316176045 0.020724149531251939 -0.024163389216127994 -0.012255726877330621 -0.0034911539245384877 0.042990422958110376 -0.12726904424506591 -0.024834951862819754 0 -0.010180760106070172 -0.085338402887675066 -0.1073475028073297 0.0520283740852759 0.03392548664256155 0.028893879151515683 9.3842831118882416e-05 -0.039787915009175071 0.023254122038343938 0.057847629091608968 -0.016988770609302095 0.0046414624421944068 -0.10452063277019601 -0.06744076339133051 -0.019166450127852799 -0.003398791678752375 0.01138284813549172 0 -0.0083914219022007044 0.0094651907687350271 -0.010989834033568052 0.008028491269512255 0 0.080074147719766259 -0.018128848045153755 -0.058317788968705007 0.032573270225041695 0 0.02680905505824404 -0.047706629837021147 -0.03781906858326526 -0.043112195070813035 0.019456970952093026 0 0.025789471077872033 0 -0.0054328196599977164 -0.02327962760675999 -0.03176932291360593 -0.079136885865771819 0.015031176618315309 -0.020815617290639601 0 0.036368341322719433 -0.010789936217264427 -0.0056258878189080902 0.037791171502710427 0 -0.02556510770411833 -0.010460324935520219 -0.001234569463362862 0.015844643368754251 -0.061373281665371732 -0.00044675468607034843 0.011106943993534351 -0.051444187464496798 0 0.027079042050329891 -0.048386929006333242 0.014884089326816652 0 -0.032607775318295125 -0.027464424894054894 -0.0057066372952957536 0.017452215905248043 0.017455936188153394 0.001041874785874122 -0.0099928251439416714 -0.013992853510042992 0.047914012481387505 -0.0024116940023351081 -0.017797977619231825 0 0.018869170945324355 -0.008368685048186341 0
leaf_weight=22 257 1151 79 24 56 680 299 116 230 138 254 182 100 1037 47 22 63 259 985 32 1577 27 242 421 182 40 67 42 259 25 44 26 178 29 229 71 25 73 416 145 344 50 78 79 30 23 126 22 669 25 26 22 245 1087 30 111 27 192 34 74 103 44 23 1165 46 23 925 427 1151 25 40 41 27 31 56 500 24 261 623 1466 22 24 37 98 80
leaf_count=22 257 1151 79 24 56 680 299 116 230 138 254 182 100 1037 47 22 63 259 985 32 1577 27 242 421 182 40 67 42 259 25 44 26 178 29 229 71 25 73 416 145 344 50 78 79 30 23 126 22 669 25 26 22 245 1087 30 111 27 192 34 74 103 44 23 1165 46 23 925 427 1151 25 40 41 27 31 56 500 24 261 623 1466 22 24 37 98 80
internal_value=-0.00017766 0.0127842 -0.0560839 -0.0390592 -0.00105316 0.0326738 -0.0890595 0.0245529 0.00226986 -0.00203559 -0.0487075 -0.0960383 0.00269018 0.0291031 -0.0202421 0.0515066 -0.0332908 0.0147928 0.0545186 0.0365101 0.00307858 -0.0663314 -0.0621571 -0.0162968 -0.00193033 0.0261648 -0.032486 -0.0405066 0.0104325 -0.0169711 0.0219157 0.0376692 0.0608313 0.0086333 -0.0733688 0.0127668 -0.00645171 0.0389934 -0.0445806 -0.0223891 -0.0528888 0.0225169 0.00239542 0.0135924 -0.00134024 0.0070599 -0.0263954 -0.00320836 -0.0849876 0.0570188 0 -0.0212803 0.0289054 -0.0132849 0.012816 0.03083 0.0200989 -0.0181949 0.00243476 0.00163416 0.00779317 -0.10017 0.0110278 0.0106195 -0.0407471 0.0234484 0.0236807 -0.0469662 0.013321 0.021499 -0.0635599 -0.0182712 0.00517925 0.0458169 0.0110594 -0.0021148 0.00428869 -0.0194426 0.046094 -0.00321274 -0.0055714 0.0243661 0.0108231 -0.0177697 0.00739053
internal_weight=20707 16809 3898 2579 9909 6900 1319 4833 8959 6658 2098 1194 481 4130 125 2067 989 2301 1868 1924 4893 49 1109 1765 703 223 950 514 1772 258 199 157 1188 76 483 191 187 1733 458 436 626 2206 587 157 430 2789 369 252 895 1010 66 538 529 1508 1520 155 159 475 107 359 177 226 73 1188 71 2099 2076 451 1490 284 282 71 108 131 81 2104 1601 453 696 1604 44 132 61 224 339
internal_count=20707 16809 3898 2579 9909 6900 1319 4833 8959 6658 2098 1194 481 4130 125 2067 989 2301 1868 1924 4893 49 1109 1765 703 223 950 514 1772 258 199 157 1188 76 483 191 187 1733 458 436 626 2206 587 157 430 2789 369 252 895 1010 66 538 529 1508 1520 155 159 475 107 359 177 226 73 1188 71 2099 2076 451 1490 284 282 71 108 131 81 2104 1601 453 696 1604 44 132 61 224 339
is_linear=0
shrinkage=0.0810527


Tree=10
num_leaves=86
num_cat=0
split_feature=0 1 9 6 6 1 1 9 7 8 8 9 9 6 1 9 9 5 7 6 4 4 1 5 3 5 3 9 6 1 7 3 4 1 3 9 3 1 7 5 9 7 0 1 3 9 5 3 9 8 7 7 1 3 8 3 7 7 4 3 0 8 4 5 0 3 5 8 7 0 5 7 4 1 5 7 4 3 4 7 7 1 1 3 5
split_gain=1972.74 591.681 318.598 123.794 115.362 90.2466 85.6842 76.598 62.8296 48.9744 42.8903 36.7175 34.009 32.5101 31.9631 19.7583 19.3477 14.1647 13.689 13.2695 12.4895 11.3078 11.2406 9.17378 8.74582 8.28139 7.65296 7.45796 7.37636 6.89793 6.74455 6.55761 6.00604 5.93296 5.9115 5.84357 5.68131 5.46005 5.83691 5.33966 5.04701 4.9076 4.43388 4.45378 4.42189 4.38176 3.97248 3.92501 3.64587 3.64538 3.55586 3.48069 3.25547 2.81337 2.51482 2.42932 2.79715 2.21929 2.14523 2.0436 1.86148 1.91135 1.84921 3.43503 1.81142 1.63736 1.61244 1.52563 1.39276 1.33222 1.3234 1.31951 1.29032 1.26454 1.24462 1.11681 1.72759 1.09203 1.07361 1.03949 1.03794 1.00347 0.940011 0.930711 0.929459
threshold=-0.15464903143388914 -0.042057539882769078 0.085804512531551649 0.027134168132349399 -0.068880966023183457 -0.51067051812297515 0.88948640733233508 0.086703706358206692 1.3863512044481758 -0.36884733745948733 -0.41269236394124897 0.086344185748250687 0.08689235891013701 -0.2762359863561496 -0.73789286991144765 0.084789674095488529 0.086985057571088722 0.28120728278245682 0.51973543365575436 -0.31643437169461291 -0.23472644403076767 -0.59465654880092889 2.0216095278898272 -0.11109410885166913 -0.080078161937408562 0.22126553887525788 -0.072320082687709161 0.084633890282956106 -0.24610507761269404 -0.32796700281884555 1.5769264243268837 -0.11199184156435489 -0.73613333317218743 0.50359008748752698 -0.089113346426981349 1.0000000180025095e-35 -0.072320082687709161 -0.87508988533680709 0.29289982409974508 -0.0073417955272904369 0.086818443277626181 2.2761159338712389 -0.33077517695532771 1.8312979535930041 0.049316058149719282 0.087001939274055015 0.82612220060313013 -0.1044810816989588 0.085743498376467414 1.7458389525223132 0.58158612944896493 0.64574936493890889 -0.6224929425266833 -0.051728030419593278 -0.4621824321739269 -0.10627886696428182 -0.086467872349960603 -0.15558597281542394 -0.57797425410023184 -0.033325213929465171 -0.28379652507978342 -0.36884733745948733 0.44359123201622969 0.72974552163081119 -0.29862907453978199 -0.11347747463178189 -0.076117545862947333 -0.7126213884832201 0.66831016263528398 -0.0076624539917677119 0.0089524348182056183 0.36780748887579889 0.24900932484326793 -0.41007648838176891 -0.2366638360020567 -0.008988299636985898 -0.25049216468720475 -0.093239353384930015 -0.12412703000802384 0.41928528542889543 -0.37299717606199845 -0.98320479981439235 0.67238966422621205 -0.069036032028086808 0.44835123830705076
decision_type=2 2 2 2 2 2 2 2 2 2 2 2 2 2 2 2 2 2 2 2 2 2 2 2 2 2 2 2 2 2 2 2 2 2 2 2 2 2 2 2 2 2 2 2 2 2 2 2 2 2 2 2 2 2 2 2 2 2 2 2 2 2 2 2 2 2 2 2 2 2 2 2 2 2 2 2 2 2 2 2 2 2 2 2 2
left_child=1 3 10 5 6 8 17 21 14 26 15 23 39 -12 27 31 19 33 29 42 47 55 -18 -5 77 52 50 -1 -23 53 32 57 -13 40 69 -15 -24 38 81 -6 60 66 -8 -44 45 -26 78 -11 -31 -21 -9 -17 -16 73 59 -4 -57 -2 -49 -10 61 -3 63 -19 -50 -30 -20 -40 -28 -22 -42 -54 -37 -7 -34 76 -76 -14 -36 -39 -55 -29 83 -60 -47
right_child=2 4 7 11 12 18 16 9 54 20 13 30 24 35 25 51 22 62 41 49 34 28 36 -25 44 -27 68 37 65 48 -32 -33 74 -35 46 72 -38 79 67 -41 70 -43 43 -45 -46 84 -48 58 64 -51 -52 -53 71 80 -56 56 -58 -59 82 -61 -62 -63 -64 -65 -66 -67 -68 -69 -70 -71 -72 -73 -74 -75 75 -77 -78 -79 -80 -81 -82 -83 -84 -85 -86
leaf_value=-0.061739938873621635 -0.11700960053080012 0 -0.066719521155808148 -0.013726413378797439 -0.0021684930534196121 9.5180500327073846e-05 0.043205896421282065 -0.048545844541382825 0.0037711137050799445 -0.03557405632319275 0.015394878450584145 -0.036258228351793077 -0.021435011395279344 -0.018321468704420134 -0.0049689709861061755 -0.080483541164744876 0.045648989539358253 0 0.016641981123544019 0.013744718176943328 0 0 0.019911754477374536 -0.083363530222715906 -0.0012004671205614655 -0.043595405631029746 -0.022203724061621844 -0.033457682863944113 -0.054439916450685036 -0.0087529186766052564 0.01185414049836579 -0.051494352705720128 0 0.034302197818716906 0 -0.070698770077515211 0.062056827878636804 -0.012268668402006321 -0.0080933879921314331 -0.046080788916300651 0.026886173356243777 0.031789701912302792 0.027890284889194747 -0.0090002346963088866 -0.0024345083774375388 0.028237087624123799 -0.016460931012843696 -0.021110121342772927 0.013707911054631931 -0.020543300994779967 -0.02783860048099775 -0.045462149991829189 -0.00018871165408695592 0.0044181261751659933 0.034048051063769819 -0.059222836733563912 -0.038711889888166866 -0.087950548280824603 -0.012664140105676716 0.023832405741544119 -0.0020014906973358912 0.018314828706934908 0.0087621772696989796 -0.036271869024821768 0 -0.036008191233005721 0 0.017582293534603725 0 -0.012508835072037327 0 0.0087247603843506848 -0.033443447499318525 -0.012398243880232859 -0.026499068488307052 -0.0041125430744910763 0 -4.7381801436070149e-05 0.017732484465034556 0 0.0086571318590703515 -0.020800134483598551 0 0 0.0015136041493014683
leaf_weight=24 307 30 276 23 33 114 226 408 78 88 31 209 38 30 1310 361 1356 31 964 45 41 24 39 108 33 29 105 159 116 39 25 36 29 860 38 335 695 889 31 107 1785 182 57 22 49 172 24 225 1500 32 139 63 1605 1264 190 211 204 161 188 134 30 170 25 23 42 381 61 22 24 174 24 112 35 67 101 65 24 56 142 47 856 347 50 24 25
leaf_count=24 307 30 276 23 33 114 226 408 78 88 31 209 38 30 1310 361 1356 31 964 45 41 24 39 108 33 29 105 159 116 39 25 36 29 860 38 335 695 889 31 107 1785 182 57 22 49 172 24 225 1500 32 139 63 1605 1264 190 211 204 161 188 134 30 170 25 23 42 381 61 22 24 174 24 112 35 67 101 65 24 56 142 47 856 347 50 24 25
internal_value=-5.37321e-05 0.0125347 -0.049381 0.00106886 0.0329706 0.0031948 0.0364306 -0.0339541 -0.00453853 -0.0224267 -0.0818065 -0.035082 -0.00343118 -0.0586171 -0.00727457 -0.0921432 0.047695 0.0269778 0.010792 0.0293193 -0.0106695 -0.0495868 0.0509166 -0.0731154 0.00899702 -0.00242206 -0.0393145 -0.0168915 -0.0388736 0.00834913 -0.0232495 -0.10473 -0.0257965 0.0279111 0 -0.0648829 0.0601612 -0.0159199 -0.0226383 -0.0372856 0.0250767 0.018455 0.0368412 0.0154403 0.0164286 0.0212102 0.00979186 -0.0183915 0.0125582 0 -0.0438076 -0.0760852 -0.00192191 0.00536441 0.0259605 -0.0571857 -0.0499487 -0.108062 -0.0147028 0.0174662 0.0119748 0.0149701 -0.0047971 -0.0144118 0.0132325 -0.0409946 0.0158184 0 -0.018283 -0.00932486 0.0266176 0.000301426 -0.0679797 -0.00367047 -0.0146131 -0.0169684 -0.0219586 -0.0109942 0.0145158 -0.0116497 0.00622628 -0.0253208 -0.00832346 -0.0106807 0.0258375
internal_weight=20854 16613 4241 10650 5963 10066 5450 2882 4977 1670 1359 584 513 431 4575 928 2472 2978 5089 382 994 1212 2090 131 373 3056 676 1519 521 3882 453 504 428 2899 419 400 734 1495 559 140 2039 1207 305 79 279 230 204 575 1581 77 547 424 3027 2301 402 691 415 468 487 212 230 200 79 54 1542 497 1025 53 129 215 1809 1717 370 181 219 190 125 94 180 936 2120 506 262 212 197
internal_count=20854 16613 4241 10650 5963 10066 5450 2882 4977 1670 1359 584 513 431 4575 928 2472 2978 5089 382 994 1212 2090 131 373 3056 676 1519 521 3882 453 504 428 2899 419 400 734 1495 559 140 2039 1207 305 79 279 230 204 575 1581 77 547 424 3027 2301 402 691 415 468 487 212 230 200 79 54 1542 497 1025 53 129 215 1809 1717 370 181 219 190 125 94 180 936 2120 506 262 212 197
is_linear=0
shrinkage=0.0810527


Tree=11
num_leaves=86
num_cat=0
split_feature=10 1 2 4 6 8 5 7 1 2 6 2 3 3 1 8 7 1 4 6 1 5 2 6 2 5 6 4 8 7 7 6 6 7 3 0 1 6 2 1 8 5 2 0 3 5 7 8 1 1 8 3 3 3 4 3 0 5 1 7 1 8 2 4 0 3 3 4 3 6 4 2 1 4 7 4 4 5 8 2 1 3 8 7 3
split_gain=1689.47 498.488 320.924 97.4071 84.3625 75.9276 69.5393 62.8463 57.6749 38.9122 32.0722 32.6091 29.5967 29.1629 23.2446 15.5658 15.1259 12.9715 11.359 11.151 11.0754 9.8095 12.4906 9.74078 9.67368 8.89833 8.7876 7.41501 7.1939 7.01192 8.96224 6.71006 6.36288 5.52329 5.30737 4.58786 4.58578 4.08738 3.70795 4.23268 3.62025 3.30356 4.53589 3.25033 3.18243 3.12858 3.5975 3.11607 3.02061 2.91283 2.7923 2.70094 2.63354 2.59577 2.41861 2.2576 2.2115 2.1652 2.02045 1.98568 1.87509 1.76779 1.74303 1.66863 1.66296 1.65383 1.63889 2.23853 1.41132 1.39581 1.25836 1.25053 1.15465 1.08427 1.02624 0.965316 0.96187 0.923807 0.886579 0.871881 0.864289 0.858382 0.836497 0.811251 1.07563
threshold=-0.2288905717748782 -0.15502105631895732 -0.98965356078844879 1.1634716353884846 -0.068880966023183457 -0.1021940156642905 0.25888652064384038 0.14566375848937321 -0.68124813818000018 1.0000000180025095e-35 -0.31088989277047047 -4.3556171987205436 -0.089113346426981349 -0.10157540202082972 0.50359008748752698 -0.41269236394124897 2.2761159338712389 -0.50154804127651365 2.156570038403737 -0.29111060237032277 -0.87508988533680709 1.0680540378299621 -0.32005539225966534 1.0000000180025095e-35 -1.9534860012645832 -0.12891470865849788 0.027134168132349399 -0.12412703000802384 -0.65418386408880347 -0.76014165402894018 -0.052054642825349572 0.45602707490082389 -0.31362642136628999 0.95504386312899359 -0.11028924372812934 -0.29744979720485493 1.2787656139960299 -0.41046910552931321 0.16394245062731408 0.12175010114522318 -0.41269236394124897 0.99805516278570383 0.21821082828217631 -0.31643135928136007 -0.11273529725141836 -0.0073417955272904369 0.17871290671269677 1.2662890719533995 0.37803846241908168 -0.34892981716425836 -0.36884733745948733 -0.093239353384930015 -0.074870156322001877 -0.10987506006968926 -0.46807018846156673 -0.092367027647890329 0.16865746015508251 -0.12431842480521677 4.3662411220290123 0.79167649338267831 -0.56583624684649103 0.90590020191641119 0.24846707466768225 -0.3652427220975954 -0.29263019373081151 -0.063144647239669421 -0.076803960909819627 0.10119217651265033 -0.060897784287808586 -0.10625419868353637 0.16024945637923663 0.44502176515920483 -0.59515053017141128 -0.081126301026546416 0.4751816061416696 0.58905080625281425 -0.58338250815291903 -0.15326676420951865 -0.57115882928095896 0.29508744497639156 -0.73789286991144765 -0.10157540202082972 1.6895646060898819 -0.76014165402894018 -0.11071926696017466
decision_type=2 2 2 2 2 2 2 2 2 2 2 2 2 2 2 2 2 2 2 2 2 2 2 2 2 2 2 2 2 2 2 2 2 2 2 2 2 2 2 2 2 2 2 2 2 2 2 2 2 2 2 2 2 2 2 2 2 2 2 2 2 2 2 2 2 2 2 2 2 2 2 2 2 2 2 2 2 2 2 2 2 2 2 2 2
left_child=1 4 10 6 7 12 14 8 20 34 15 74 29 19 26 -2 28 72 25 -7 57 37 -23 71 83 36 38 61 68 56 -31 45 43 40 -6 58 62 -8 48 -40 -14 42 -29 -27 -21 46 60 -34 50 51 -3 -19 -44 -32 -33 64 -4 -1 -20 76 -11 69 -5 -42 -39 -28 -25 -68 -9 -15 -26 79 -10 -57 -12 -72 -30 -35 -47 -16 -22 -58 -46 -13 -85
right_child=2 3 5 18 9 13 21 16 17 31 11 24 33 27 23 -17 -18 49 35 44 80 22 -24 66 70 32 65 41 59 30 53 54 47 77 -36 -37 -38 55 39 -41 63 -43 52 -45 82 78 -48 -49 -50 -51 -52 -53 -54 -55 -56 73 81 -59 -60 -61 -62 -63 -64 -65 -66 -67 67 -69 -70 -71 75 -73 -74 -75 -76 -77 -78 -79 -80 -81 -82 -83 -84 84 -86
leaf_value=-0.021542838939309829 -0.053166061015730549 -0.00033348113001501471 -0.011839143845993471 0.0014742469365122666 -0.08520228530504427 0.020665214761076252 0.016616939044167171 -0.00973204145714897 -0.0035070369572026065 -0.015728570863722088 -0.1157157901426589 -0.060355994618909517 -0.03235201239685008 0 0.029162547912006107 0.031573662727961624 0.029012392055536063 -0.016103350702745385 0.051035491105385869 -0.046014043102063314 -0.011671880017353727 -0.079022475707871145 -0.0088190194362258827 -0.0032751320163752185 -0.06442667867295318 0.036074621122001729 -0.015837735079065912 -0.0028475220434463194 0.0030044052760387035 -0.061807324785420802 -0.06378607109713548 -0.035434709222712461 0.019251593725793492 0.0059733843995251413 -0.044336351958937439 0.0080146807057202372 0.046876102355555671 -0.035215706800147399 0.019047246999489002 0.026924173526296905 -0.018563118484785788 -0.017922908110269583 0.0017785533480732887 0 -0.028943863656157951 -0.036640562864947573 0.013708564399367866 -0.015890333411266739 -0.01079689943459527 0.010191235024195604 0.018101800294206598 0.0049755523421651836 0.024780613052459832 -0.038673007079791002 0 -0.012272991080343775 -0.041678041798200366 -0.044352013673783129 0.080471347523252912 0.017206391194934108 0.0017071236149382644 -0.001136415918665703 0.033736235229964592 0 0 0.0052564391298956124 0 0.025837743439155552 0.0027940237317470142 -0.016012706945984549 -0.0072273307581921034 0.0051284899065374492 0 0.0031293019233092608 -0.053807328271691365 -0.047029373409660367 0.011588750823736888 -0.0097709203572863435 -0.0027646152665608556 0.03820245679113516 -0.0062290063625597128 -0.011152674062219528 -0.012245954456328619 -0.087729497248335939 -0.036878535508233917
leaf_weight=426 24 47 58 24 67 22 35 75 1030 90 184 103 426 30 389 25 388 34 781 118 860 31 48 33 532 97 43 143 172 432 67 107 24 23 100 26 591 35 1434 1045 86 34 78 22 359 23 65 38 26 1042 207 1711 95 445 26 43 122 51 48 629 41 119 365 33 22 32 31 44 236 323 22 24 1296 55 22 23 682 60 24 971 510 28 72 428 22
leaf_count=426 24 47 58 24 67 22 35 75 1030 90 184 103 426 30 389 25 388 34 781 118 860 31 48 33 532 97 43 143 172 432 67 107 24 23 100 26 591 35 1434 1045 86 34 78 22 359 23 65 38 26 1042 207 1711 95 445 26 43 122 51 48 629 41 119 365 33 22 32 31 44 236 323 22 24 1296 55 22 23 682 60 24 971 510 28 72 428 22
internal_value=-7.14966e-05 0.0121219 -0.0436841 0.0292746 0.000388758 -0.0293311 0.0226484 0.00225534 -0.0014851 -0.0305326 -0.0762923 -0.0786692 -0.0404759 -0.0148993 0.0251527 -0.00713634 0.0142549 0.00292114 0.0442275 -0.0289841 -0.0137657 -0.0167756 -0.0405845 0.0335648 -0.0723379 0.0381223 0.0206268 -0.00481966 0.0109157 -0.0483994 -0.0518086 -0.0151812 0.0191037 -0.0254805 -0.063092 0.0521326 0.0413757 -0.0054243 0.0213847 0.0224716 -0.0284977 0.00371424 0.00677072 0.029871 -0.0314124 -0.00605201 -0.000450215 0 0.0109718 0.00665977 0.0140173 0.00443167 0.0156673 -0.0426877 -0.0299869 -0.0117917 -0.031514 -0.02464 0.0532606 0.0132622 -0.00899718 -0.0115152 0.0322403 -0.0127199 -0.0246017 -0.00465002 0.00759399 0.0146549 0 -0.0144591 -0.0624959 0.0354375 -0.00148291 -0.00199423 -0.110897 -0.0331282 0.0100908 -0.00322605 -0.0242587 0.035825 -0.00979802 -0.0375239 -0.0266858 -0.0818623 -0.0859232
internal_weight=20854 16296 4558 6611 9685 3173 4595 9142 6960 543 1385 1336 1780 1393 4326 49 2182 5113 2016 571 1847 269 79 1492 1130 1161 2834 822 1794 1152 944 376 181 628 167 855 980 190 2759 2479 545 350 316 119 549 243 196 62 280 2787 254 1745 173 512 133 155 208 477 829 1483 131 472 389 119 57 75 108 75 311 353 577 1384 2326 98 206 45 854 83 47 1360 1370 150 431 553 450
internal_count=20854 16296 4558 6611 9685 3173 4595 9142 6960 543 1385 1336 1780 1393 4326 49 2182 5113 2016 571 1847 269 79 1492 1130 1161 2834 822 1794 1152 944 376 181 628 167 855 980 190 2759 2479 545 350 316 119 549 243 196 62 280 2787 254 1745 173 512 133 155 208 477 829 1483 131 472 389 119 57 75 108 75 311 353 577 1384 2326 98 206 45 854 83 47 1360 1370 150 431 553 450
is_linear=0
shrinkage=0.0810527


Tree=12
num_leaves=86
num_cat=0
split_feature=10 1 9 1 5 1 7 9 4 3 8 4 1 6 6 3 9 6 6 1 3 1 6 7 9 9 1 9 1 5 6 9 3 0 4 4 7 1 1 6 7 8 9 8 1 10 7 6 8 6 7 1 9 7 9 8 10 6 8 10 3 8 3 4 6 7 5 7 6 8 8 7 6 9 3 4 3 6 3 7 8 5 8 1 5
split_gain=1432.85 422.371 266.732 81.1812 69.438 59.2181 54.7142 54.3675 48.4649 41.5991 29.8369 22.7538 21.8534 17.4128 16.9319 14.0809 12.6523 13.5398 12.5838 11.6178 11.0027 10.4379 8.62729 8.52746 8.33305 7.83295 7.10564 6.83749 6.01813 5.86309 5.15338 5.14043 4.99535 4.72733 4.66776 4.44737 4.33917 4.25071 4.15713 3.61257 3.57125 3.54879 3.53423 3.32087 3.27638 3.2292 3.18827 3.07424 2.88965 2.88278 2.62226 2.48645 2.43443 2.42677 2.32724 2.22154 2.09611 2.0743 1.99436 1.97226 1.96368 1.96301 1.89913 1.88071 2.43282 1.60549 1.57412 1.39957 1.32675 1.29969 1.29627 1.2008 1.13493 1.13107 1.11346 1.11121 1.48184 1.0514 0.959004 0.927324 0.926617 0.885588 0.860971 0.852857 0.823262
threshold=-0.2288905717748782 -0.042057539882769078 0.086503268312740481 -0.5485398327807004 0.029903830778212508 1.0505229583573603 1.0462718779112066 0.085358222709608703 -0.60457999026750253 -0.099421455426474334 0.93471425026531885 0.74192274405801728 -0.81956439123187386 0.078134624264290145 -0.2762359863561496 -0.097855599349120775 0.085931254041890073 -0.29488128001633745 -0.068880966023183457 -0.32796700281884555 -0.08100776825829907 -0.83437354026589639 -0.25224298374196197 -0.018260906325935775 0.08710298568070797 0.086980336496407365 2.1003960729287141 1.0000000180025095e-35 0.55121778866446081 0.048624259026418169 -0.28743842416728421 0.086627842246136066 -0.074870156322001877 -0.31643135928136007 -0.092986383970293088 -0.25570047191172873 0.81437287640723499 -0.67091077052527803 -0.65628238517249415 -0.23399811601158801 0.38598232913803759 -0.57646213005260571 0.084633890282956106 1.341534461154084 -0.77491866290710087 1.5868056763760476 0.19246889473053605 0.2637510250715614 0.41337315074975917 1.0000000180025095e-35 2.2761159338712389 -0.98320479981439235 0.0867999053992876 -0.070413072390852219 0.087033102551194175 -0.62808004553877161 -0.3179072871931376 0.29534206320544415 -0.49343699539348901 -0.30754986351364505 -0.094178873701786028 -0.58613705265830862 -0.071249839224759109 -0.37535497868193962 -0.27232009529322027 -0.008988299636985898 0.3464363921384403 2.6065082136451765 0.078134624264290145 -0.36884733745948733 2.4961564267081386 -0.23827387321911367 -0.2762359863561496 0.087001939274055015 -0.060897784287808586 0.64720513733328833 -0.10800244139606303 0.35885037816555937 -0.079044802908395898 0.086073488724982897 -0.29446210040170595 0.82612220060313013 -0.16029108050409793 0.37803846241908168 0.56790876591419315
decision_type=2 2 2 2 2 2 2 2 2 2 2 2 2 2 2 2 2 2 2 2 2 2 2 2 2 2 2 2 2 2 2 2 2 2 2 2 2 2 2 2 2 2 2 2 2 2 2 2 2 2 2 2 2 2 2 2 2 2 2 2 2 2 2 2 2 2 2 2 2 2 2 2 2 2 2 2 2 2 2 2 2 2 2 2 2
left_child=1 3 7 6 5 28 9 10 20 18 21 16 41 19 -9 43 17 -6 63 36 37 23 33 -2 30 48 -26 -23 47 58 56 -15 -24 70 73 -27 60 65 57 -29 -22 51 -21 75 46 -12 -16 52 74 -30 59 53 69 -11 -32 -38 -7 80 67 -44 61 -5 -37 64 -1 -4 78 -8 72 -3 -13 -62 -36 -18 -17 76 84 -53 -50 -40 -14 -45 -33 -71 -10
right_child=2 4 8 13 11 24 29 14 15 12 45 22 38 31 44 25 34 -19 -20 42 40 27 32 -25 26 35 -28 39 49 -31 54 82 -34 -35 68 62 55 -39 79 -41 -42 -43 50 81 -46 -47 -48 -49 66 -51 -52 77 -54 -55 -56 -57 -58 -59 -60 -61 71 -63 -64 -65 -66 -67 -68 -69 -70 83 -72 -73 -74 -75 -76 -77 -78 -79 -80 -81 -82 -83 -84 -85 -86
leaf_value=-0.041942370150496004 -0.10204725810166736 0 -0.052083936732213294 -0.023379130117171 0 0.037476562952005701 0.0074922399556382408 0 -0.017235305581570836 -0.032817021404800605 0.0066873949272615437 0.047096550212079813 -0.0071239018881968019 -0.039909306653046622 -0.065895497147937271 -0.023361203860221884 -0.023747578543560254 -0.078282184049986756 -0.071293663337747545 -0.014486362772462132 -0.0251344884941982 -0.016053029230384999 -0.024878445055626228 -0.059665244176088782 0.040532178477086553 -0.0047668733006223877 0.05487834576321203 -0.023603726503251921 0.030616775711298005 -0.014581174934975285 0 -0.012072290362396525 0.017284678517158317 0 0 0.0029537248357687346 -0.0038206881598718389 -0.030081797782889583 -0.0019947669297103445 -0.073115931131492076 -0.0041839192048864354 0 0.012682435963506751 0 -0.04544271679761918 -0.027848888890669742 -0.038783579180604433 -2.6298633898000173e-05 0.0095619921268727797 0 0.026364224865983561 -0.015447463295940836 0.022885145750210452 0 0.02298648412664411 0.016807542166997178 0.0033810334854911905 -0.027744414409956567 0.030138868458104755 -0.0025310966461673879 0.0033169324617643402 0 0.018662994264048258 0 -0.001282685557640918 -0.034123903948558229 -0.013550141338782261 0.02323313019861719 -0.0026227133082566624 0.016744711642643573 0.0091121139185610153 0.0072269227303279242 0.019568320930269223 -0.0021114945514992883 0 -0.0041878309555791358 -0.019521370255386604 -0.035606297125169759 -0.0069883473692170604 0.004218741240972268 0.0014360576957232047 -0.014994525830144564 0 0 -0.04486375881976945
leaf_weight=43 250 31 250 29 23 506 135 41 45 174 22 85 1438 50 255 135 68 32 84 22 229 26 29 84 922 200 537 25 1021 22 43 59 40 22 51 148 22 364 1369 571 101 71 2237 66 815 31 98 26 60 24 118 631 1914 22 52 282 25 35 182 36 2024 42 118 27 25 173 54 110 72 141 22 910 44 48 26 38 206 33 22 160 50 35 43 33 70
leaf_count=43 250 31 250 29 23 506 135 41 45 174 22 85 1438 50 255 135 68 32 84 22 229 26 29 84 922 200 537 25 1021 22 43 59 40 22 51 148 22 364 1369 571 101 71 2237 66 815 31 98 26 60 24 118 631 1914 22 52 282 25 35 182 36 2024 42 118 27 25 173 54 110 72 141 22 910 44 48 26 38 206 33 22 160 50 35 43 33 70
internal_value=-8.57275e-05 0.0111428 -0.0402504 0.00140792 0.028666 0.0314894 -0.00661788 -0.0604206 -0.0209978 -0.00955077 -0.0747577 0.000517934 -0.00775669 0.00773935 -0.0481396 -0.00960016 -0.0118855 -0.0466538 -0.0476354 0.00848397 -0.0332511 -0.0780716 0.0224539 -0.0925939 0.0422472 -0.00254599 0.0460454 -0.0695497 0.0243657 0.02004 0.0329162 -0.0187125 0 0.0345855 -0.00404597 0.00370771 0.00526254 -0.0387377 -0.00435277 -0.0714806 -0.0193725 -0.0186668 0.0128132 -0.0208081 -0.0499352 -0.0106899 -0.0592956 0.0215128 -0.0129029 0.0299642 0.0131596 -0.0201027 0.0218629 -0.0296304 0.0118843 0.0146951 0.0362434 -0.00737116 0.0223435 0.0123579 0.00423296 -0.0079536 0.0107402 -0.0232222 -0.0302888 -0.0454771 -0.00249052 0.0155037 0.00376383 0.0112365 0.0414352 0.00459843 0.0103955 -0.0166247 -0.0203658 -0.0246236 -0.0264137 -0.0168884 0.00287906 -0.00121777 -0.00671115 -0.00515285 -0.00569045 0.0140193 -0.036355
internal_weight=20854 16296 4558 10485 5811 5275 4611 2218 2340 4162 1009 536 3983 5874 1209 1223 338 55 179 5722 1117 956 198 334 2085 763 1459 622 3190 449 626 152 69 129 283 466 3309 787 3052 596 330 931 2413 460 1168 53 353 2145 297 1045 2391 860 2119 196 95 304 531 1523 427 2273 3005 71 266 95 68 423 136 245 167 205 107 2934 95 116 161 359 321 664 82 1529 1488 101 102 174 115
internal_count=20854 16296 4558 10485 5811 5275 4611 2218 2340 4162 1009 536 3983 5874 1209 1223 338 55 179 5722 1117 956 198 334 2085 763 1459 622 3190 449 626 152 69 129 283 466 3309 787 3052 596 330 931 2413 460 1168 53 353 2145 297 1045 2391 860 2119 196 95 304 531 1523 427 2273 3005 71 266 95 68 423 136 245 167 205 107 2934 95 116 161 359 321 664 82 1529 1488 101 102 174 115
is_linear=0
shrinkage=0.0810527


Tree=13
num_leaves=86
num_cat=0
split_feature=10 1 2 1 6 8 7 1 5 6 9 6 2 9 9 2 8 9 1 1 6 1 8 1 2 5 7 10 5 1 6 5 7 8 9 9 6 0 1 8 2 9 9 2 5 9 2 1 6 5 6 10 1 9 6 11 8 1 8 2 1 5 7 0 1 1 2 1 7 5 9 9 10 8 1 7 5 6 6 1 1 1 8 1 7
split_gain=1214.95 358.579 232.81 73.3401 63.9235 55.9336 45.5256 47.648 34.8594 31.8185 29.4842 24.4834 25.6197 23.3581 16.9667 13.9403 12.4745 11.6312 11.1202 8.47077 8.22997 7.18685 6.97405 6.74487 6.00914 5.82222 5.77534 5.66723 5.20399 5.1528 4.92653 4.2194 4.17756 3.8737 3.41975 3.17947 3.14559 3.08042 2.90548 2.89874 6.98695 2.66248 2.57195 2.43853 2.4209 2.21789 2.12154 2.32848 1.88479 1.8576 1.76239 1.75052 3.02461 1.69056 1.62595 1.6126 1.58017 1.54291 1.38712 1.35922 1.2681 1.25734 1.00477 0.988811 0.952905 0.911671 0.854017 0.839474 0.826336 0.810145 0.809618 0.785422 0.884329 1.21462 0.757984 0.751578 0.742839 0.716586 1.41316 1.09024 0.972031 1.01303 0.705906 0.702807 0.673422
